tree
version=v4
num_class=1
num_tree_per_iteration=1
label_index=0
max_feature_idx=500
objective=binary sigmoid:1
feature_names=Column_0 Column_1 Column_2 Column_3 Column_4 Column_5 Column_6 Column_7 Column_8 Column_9 Column_10 Column_11 Column_12 Column_13 Column_14 Column_15 Column_16 Column_17 Column_18 Column_19 Column_20 Column_21 Column_22 Column_23 Column_24 Column_25 Column_26 Column_27 Column_28 Column_29 Column_30 Column_31 Column_32 Column_33 Column_34 Column_35 Column_36 Column_37 Column_38 Column_39 Column_40 Column_41 Column_42 Column_43 Column_44 Column_45 Column_46 Column_47 Column_48 Column_49 Column_50 Column_51 Column_52 Column_53 Column_54 Column_55 Column_56 Column_57 Column_58 Column_59 Column_60 Column_61 Column_62 Column_63 Column_64 Column_65 Column_66 Column_67 Column_68 Column_69 Column_70 Column_71 Column_72 Column_73 Column_74 Column_75 Column_76 Column_77 Column_78 Column_79 Column_80 Column_81 Column_82 Column_83 Column_84 Column_85 Column_86 Column_87 Column_88 Column_89 Column_90 Column_91 Column_92 Column_93 Column_94 Column_95 Column_96 Column_97 Column_98 Column_99 Column_100 Column_101 Column_102 Column_103 Column_104 Column_105 Column_106 Column_107 Column_108 Column_109 Column_110 Column_111 Column_112 Column_113 Column_114 Column_115 Column_116 Column_117 Column_118 Column_119 Column_120 Column_121 Column_122 Column_123 Column_124 Column_125 Column_126 Column_127 Column_128 Column_129 Column_130 Column_131 Column_132 Column_133 Column_134 Column_135 Column_136 Column_137 Column_138 Column_139 Column_140 Column_141 Column_142 Column_143 Column_144 Column_145 Column_146 Column_147 Column_148 Column_149 Column_150 Column_151 Column_152 Column_153 Column_154 Column_155 Column_156 Column_157 Column_158 Column_159 Column_160 Column_161 Column_162 Column_163 Column_164 Column_165 Column_166 Column_167 Column_168 Column_169 Column_170 Column_171 Column_172 Column_173 Column_174 Column_175 Column_176 Column_177 Column_178 Column_179 Column_180 Column_181 Column_182 Column_183 Column_184 Column_185 Column_186 Column_187 Column_188 Column_189 Column_190 Column_191 Column_192 Column_193 Column_194 Column_195 Column_196 Column_197 Column_198 Column_199 Column_200 Column_201 Column_202 Column_203 Column_204 Column_205 Column_206 Column_207 Column_208 Column_209 Column_210 Column_211 Column_212 Column_213 Column_214 Column_215 Column_216 Column_217 Column_218 Column_219 Column_220 Column_221 Column_222 Column_223 Column_224 Column_225 Column_226 Column_227 Column_228 Column_229 Column_230 Column_231 Column_232 Column_233 Column_234 Column_235 Column_236 Column_237 Column_238 Column_239 Column_240 Column_241 Column_242 Column_243 Column_244 Column_245 Column_246 Column_247 Column_248 Column_249 Column_250 Column_251 Column_252 Column_253 Column_254 Column_255 Column_256 Column_257 Column_258 Column_259 Column_260 Column_261 Column_262 Column_263 Column_264 Column_265 Column_266 Column_267 Column_268 Column_269 Column_270 Column_271 Column_272 Column_273 Column_274 Column_275 Column_276 Column_277 Column_278 Column_279 Column_280 Column_281 Column_282 Column_283 Column_284 Column_285 Column_286 Column_287 Column_288 Column_289 Column_290 Column_291 Column_292 Column_293 Column_294 Column_295 Column_296 Column_297 Column_298 Column_299 Column_300 Column_301 Column_302 Column_303 Column_304 Column_305 Column_306 Column_307 Column_308 Column_309 Column_310 Column_311 Column_312 Column_313 Column_314 Column_315 Column_316 Column_317 Column_318 Column_319 Column_320 Column_321 Column_322 Column_323 Column_324 Column_325 Column_326 Column_327 Column_328 Column_329 Column_330 Column_331 Column_332 Column_333 Column_334 Column_335 Column_336 Column_337 Column_338 Column_339 Column_340 Column_341 Column_342 Column_343 Column_344 Column_345 Column_346 Column_347 Column_348 Column_349 Column_350 Column_351 Column_352 Column_353 Column_354 Column_355 Column_356 Column_357 Column_358 Column_359 Column_360 Column_361 Column_362 Column_363 Column_364 Column_365 Column_366 Column_367 Column_368 Column_369 Column_370 Column_371 Column_372 Column_373 Column_374 Column_375 Column_376 Column_377 Column_378 Column_379 Column_380 Column_381 Column_382 Column_383 Column_384 Column_385 Column_386 Column_387 Column_388 Column_389 Column_390 Column_391 Column_392 Column_393 Column_394 Column_395 Column_396 Column_397 Column_398 Column_399 Column_400 Column_401 Column_402 Column_403 Column_404 Column_405 Column_406 Column_407 Column_408 Column_409 Column_410 Column_411 Column_412 Column_413 Column_414 Column_415 Column_416 Column_417 Column_418 Column_419 Column_420 Column_421 Column_422 Column_423 Column_424 Column_425 Column_426 Column_427 Column_428 Column_429 Column_430 Column_431 Column_432 Column_433 Column_434 Column_435 Column_436 Column_437 Column_438 Column_439 Column_440 Column_441 Column_442 Column_443 Column_444 Column_445 Column_446 Column_447 Column_448 Column_449 Column_450 Column_451 Column_452 Column_453 Column_454 Column_455 Column_456 Column_457 Column_458 Column_459 Column_460 Column_461 Column_462 Column_463 Column_464 Column_465 Column_466 Column_467 Column_468 Column_469 Column_470 Column_471 Column_472 Column_473 Column_474 Column_475 Column_476 Column_477 Column_478 Column_479 Column_480 Column_481 Column_482 Column_483 Column_484 Column_485 Column_486 Column_487 Column_488 Column_489 Column_490 Column_491 Column_492 Column_493 Column_494 Column_495 Column_496 Column_497 Column_498 Column_499 Column_500
feature_infos=[-1.406057441780395:4.3672127643709153] [-1.4884833415963246:3.8049913346488431] [-1.4724787306419083:4.1935282775800813] [-1.4577523680213287:4.0790933629811388] [-1.4820859542665323:5.0809834451763027] [-1.47755334733445:4.1018527655221577] [-1.4642351120509449:4.281649806060809] [-1.5012905271384396:4.5570173364639617] [-1.5053901024903187:4.1727882920261727] [-1.4886840193838602:4.7056552965740472] [-1.5085693188136722:3.9874837174576969] [-1.5044925823760278:4.2207896272664973] [-1.4397989120372736:5.7709672234016294] [-1.4741790934880878:4.5004917135937177] [-1.5239635801769926:4.0403875916990124] [-1.5014700787129003:5.0364760040466345] [-1.5738565134451099:3.4006712346650705] [-1.5684914432012664:3.532723120486589] [-1.5464852861997989:3.2083502658833498] [-1.5676703085464332:4.8696028295945846] [-1.5519479212848053:3.4462010717124905] [-1.5961909363622167:4.2402261743158798] [-1.5973474306822313:3.2427361657628144] [-1.5873114971131095:3.449088235919807] [-1.6274582383959242:4.8965326831787861] [-1.6168306966522537:4.8129694801025238] [-1.6649539034356722:3.3713279936997238] [-1.6367994104231942:4.6067485936006083] [-1.674373841150802:3.4304701327715428] [-1.6565496712309233:3.1521263450970851] [-1.6655073424342:3.7577694662371748] [-1.6626928891682904:4.2012684078939797] [-1.6586753492174828:4.0017662559508009] [-1.6606529595485839:3.4840946914211455] [-1.6570451663358181:4.4240080471512107] [-1.6309930055258839:4.7013188749540857] [-1.6001880735193841:4.9901014681203382] [-1.5550392642912052:6.1021227698282168] [-1.4353262700636682:7.6983351887488567] [-1.2258285830243325:10.651128029591492] [-0.4967861247063981:17.091766034223848] [-0.46280321163594301:12.687925407358899] [-0.45201115026450278:10.138072711854084] [-0.5236497941778393:10.205628291623867] [-0.59551634166354761:9.0357642627548032] [-0.53442469738385945:4.2011964197142158] [-0.60105861038783082:3.3275379100961535] [-0.64666091263677916:3.3935694118209336] [-0.66333927160096162:3.3147242614849941] [-0.68032539997787456:3.7010148430931538] [-0.67516133731921424:3.3849028840377393] [-0.67885622310383209:3.4651376513095227] [-0.67219443296485293:3.2449838796674602] [-0.65022925613130467:3.2231431144734231] [-0.60120483977269623:3.710002110578662] [-0.52403795443497003:4.3360606798844126] [-0.55719295568195926:8.8912034306462733] [-0.62623486571721831:13.871532583021247] [-0.45033050717774925:11.011301385508371] [-0.39611177260909736:10.910572959785135] [-0.4794935289981293:17.579122869217123] [-1.2985889585708983:8.3436494843441924] [-1.5519516648730554:6.2589593040687106] [-1.6637275146714487:5.0607346189804181] [-1.739271568447587:4.9979229420458182] [-1.8097836497665509:3.8129368117892168] [-1.8525610959667917:4.2744772455720623] [-1.8741504565284823:4.7142635478591322] [-1.9561165870923032:4.1538964575392896] [-1.9068195198976279:4.4320168365796233] [-1.8821881187807616:4.5458968981944485] [-1.9373914683777107:4.8463248975479534] [-1.9590700286041032:4.4922053595403515] [-1.9707098517776125:4.222828873298738] [-1.9261796929434658:4.9410842522679879] [-1.9686135565803675:5.6249290933705414] [-1.9188841949173681:5.8699602127437664] [-1.8088788297621508:5.1664214597622697] [-1.8910580313485212:5.0742997539306529] [-1.8745771676182073:4.4283623127124949] [-1.7611159574142712:6.6202046977024684] [-1.3626551507056621:20.153041064386944] [-1.2565239914858592:17.789993787032397] [-1.490451492555618:16.206847283144008] [-0.7472262153187692:17.313032480786411] [-1.2674532716644753:17.654884104517119] [-0.83932155623386118:18.83935784494723] [-1.1706772154947711:14.048117226191819] [-1.4751081648995843:8.28589693326205] [-0.98940664271569256:14.880821844767167] [-0.68497328786967981:12.075488482106106] [-0.55324008020312332:11.869558779454907] [-0.59724576042782174:11.569524192883058] [-0.55003171511489124:11.458206223503767] [-0.6165440853302997:11.055664152793995] [-0.54630139524112675:10.349163681364647] [-0.62188132885159964:9.6770623930332551] [-0.53642930470329331:11.423255409426821] [-0.57937530303519402:12.563566977548632] [-0.52565201250964322:11.491813311197038] [-0.52175901651201284:10.790963209645788] [-0.5197209106159002:11.35763886680475] [-0.66994319953615689:12.384762087337808] [-0.50149077646419704:10.1380126745971] [-0.55563803440556814:12.013823123060412] [-0.46442832922743754:9.8167096619257705] [-0.5663081850230266:13.375056623976789] [-0.56318105377888417:10.874593227190431] [-0.56830323436493269:13.579904059748884] [-0.5994773417722068:15.411836075550109] [-0.52287801309481952:11.696570024967976] [-0.81981044131820902:10.566487359258566] [-0.7210084789987059:12.943704798664941] [-0.66050870544246487:12.772081743279973] [-0.85592222824025432:18.797422302381854] [-0.9505082374605881:17.653046724289858] [-1.0782765380886368:6.8660446020282482] [-0.98814719979185117:4.6566789652340583] [-0.95726216106128648:9.8393689840626521] [-1.0952326544727571:17.083264413325235] [-1.1771566110314495:5.2127801812298831] [-1.1937199197321033:5.9887857813999021] [-1.2628813783796682:7.5370361250292737] [-1.2250882971508037:5.1199604780606345] [-1.2331963635447083:6.8210610249847603] [-1.2255524344404283:7.1099170644357992] [-1.243205521816267:6.776751379318628] [-1.242216576595299:5.2725304205041832] [-1.1839735684562291:4.9966480159105906] [-1.1934860245845418:5.0316406782715513] [-1.1139625767401167:6.2323322350343844] [-1.113208011032693:5.7659699862806093] [-1.1439245339992881:6.6074532772267434] [-1.16238784364652:7.0501446226822919] [-1.1223933133969559:6.0559872408862683] [-1.1267352760263922:5.5371496992824101] [-1.1464223494321597:5.8781590415561551] [-1.1122377936169583:5.9368955257639922] [-1.112400416062395:4.9332764869983041] [-1.0894779118134712:7.3330784206332602] [-1.1025047571855766:5.2480159940721558] [-1.1561987154264199:6.1207642045565578] [-1.0268200657656579:6.4955356629118777] [-1.1483577807053289:5.2051336145529232] [-1.1135214356354577:5.7266427418767352] [-1.0723503432843564:5.185687789382829] [-1.1016099799898289:6.5031617699867015] [-1.0775441758472455:8.3498427545027223] [-1.0600974553163343:6.3927646127247728] [-0.99458006092862117:6.1104853490713129] [-1.0597919771338005:5.6617766179120448] [-1.078582248030088:5.2807359990782494] [-1.0715282040507583:5.7898269098176858] [-1.0570445216639655:6.1339727371106836] [-1.0403345133452562:6.325138713328065] [-1.0518753073191551:5.2688536492873368] [-1.0310973757629702:5.2616090247209844] [-1.0511356049510945:5.9056534095730573] [-1.0422046198132853:5.1850743274176461] [-1.0191606626401426:5.6858769715625721] [-1.0280155992045588:5.6070676369630199] [-0.97511078828242082:5.8206030428693936] [-1.002436816788101:7.693585122085671] [-1.0004796615824272:5.9952627533683129] [-1.0189827985987412:5.1305104066290825] [-1.0179140005742915:6.8807398166650247] [-0.98022086828444965:5.8535894394016443] [-0.98940219399942242:6.6626914140187408] [-0.99468822435457349:5.5148550408962338] [-0.96301793127895396:6.4700365191160154] [-1.0215167916231782:4.7776226687231738] [-0.98057639422432585:6.2211290192953612] [-0.96495273524485703:6.7839571685753395] [-1.0123222189479695:5.291720634786806] [-0.98397727308162009:5.9302152187379757] [-1.0002228480870949:5.9676053460433138] [-0.99023480388302976:7.2879379120416834] [-0.93868334623267968:6.1618243161525923] [-0.94892662212026191:5.4392768407999679] [-0.92300002215253263:6.624203456416712] [-0.95166667387170234:5.567708914925519] [-0.98966615269789371:6.2397181060392519] [-0.9373808070261862:6.1994073319912006] [-0.92398745896849399:5.4522515828323659] [-0.97577265829751825:5.4356862356979621] [-0.9102282970140918:5.8284554174070378] [-0.94249926036559473:6.0046569295358134] [-0.93601699699168661:6.6799592309852684] [-0.91448037775755242:6.1507975166142694] [-0.92264273322758039:5.8923972980160535] [-0.92731885951821047:6.0946688055103913] [-0.92798543647765164:5.8537948706848688] [-0.92574853285639624:6.329758850274481] [-0.94077998615256675:6.2586793439999369] [-0.94067437734964943:6.2978911954656605] [-0.95635890155944614:5.355676180071244] [-0.89407708176102163:6.174660578900518] [-0.88488116058049715:6.0278413066030074] [-0.93668709914878723:5.6585533038994136] [-0.92684749120634835:5.0110129742922718] [-0.78474755485189041:2.810822033938559] [-0.90703932064156001:6.1319607122833464] [-0.91879205958455479:6.3400158235105799] [-0.92153598927893654:5.3061879974298787] [-0.90037113323395301:4.9490639690552882] [-0.90411444870747459:6.3028856228047694] [-0.92283802541819826:5.5530428309590452] [-0.88422027476801102:5.6211102710182974] [-0.87897961515235978:6.551721839861413] [-0.88798669758243964:6.1092088654324144] [-0.88812817581557368:5.8565200955749654] [-0.94509602729150055:6.8446071250599925] [-0.89585305177842744:6.4731114372703278] [-0.88455794825005241:6.4800051534351262] [-0.90913063677183437:6.4525101692482556] [-0.91287278215320611:5.631707836176898] [-0.90089327784606388:6.5607291677004147] [-0.8712184351788308:5.8080208752611826] [-0.8943161393497292:6.4724130786712637] [-0.88326904036618037:6.7313140259525657] [-0.84550113817447792:6.314405248963177] [-0.84592083503428073:6.4088935061148824] [-0.89430534855569288:5.3115161647945959] [-0.89418132761870073:5.7251392545065398] [-0.88435583484490377:5.8852100742625346] [-0.84977925715552061:5.5168739933182787] [-0.89419411291492434:5.9444957618463903] [-0.88988289350012995:6.8113335999343567] [-0.88368993250483674:4.886396884602906] [-0.87096198927896162:5.4676042223293972] [-0.86642132525187954:6.1522501046091573] [-0.86468749447249105:5.8476333310842357] [-0.85259592575316301:7.6670882520532997] [-0.84669945809575742:6.3507975629906648] [-0.86270978795306474:6.2528731187189868] [-0.89321013544163985:5.7045004004364497] [-0.89332170754423756:6.3411253459659216] [-0.87691253176235529:5.3612889225230429] [-0.86785774656190839:4.4480906255219725] [-0.86788751475641768:5.8996418739434207] [-0.82527117549955376:6.1132180122836299] [-0.81952937356933631:5.6054126972053497] [-0.84748493550053106:6.2449045781326138] [-0.85497885932677031:5.5785773185299146] [-0.82884574455270332:6.1556792868227941] [-0.84201677703357858:5.9675413936889816] [-0.83718495897648826:6.4954154496462868] [-0.82644306701455694:5.8575327359028906] [-0.83174054815357945:5.782027610917293] [-0.85926703827883155:6.0898831168816656] [-0.84661279330497774:4.7792698800845743] [-0.85038918117817308:5.7942825489915917] [-0.81844597310427436:6.3608534642906873] [-0.84356410466241916:5.7086365364330938] [-0.84064301056308788:7.1557132533230092] [-0.84914561642993636:4.8430385594830367] [-0.85896603990728659:5.0375538323355755] [-0.84840272405500949:7.8178008144404165] [-0.81355270300087057:7.7056891721294667] [-0.83821797971330136:5.2595647996808381] [-0.82327914901789601:6.2375389727881911] [-0.84043939835214532:4.6665419229658109] [-0.84113486955027172:5.6138492684340378] [-0.80450109091243516:4.6361464622400685] [-0.83118442704275064:5.9046354497786853] [-0.8671241869571773:5.2645187360090704] [-0.81916396524948332:4.7246739710297181] [-0.79135347677975432:5.821295687599922] [-0.87515717144071392:6.3953661399660433] [-0.83398397255795331:5.8911792438703792] [-0.80971670152729713:5.4835843027332221] [-0.88088407842434724:4.9370681510557635] [-0.80672271397300399:5.8417460447137284] [-0.83483611338010055:5.9846929836056439] [-0.8319853475336787:5.1809032187145307] [-0.83503425115328711:5.7306342778814594] [-0.8247493434193186:6.372139698635821] [-0.8106240977710808:5.4784705965089229] [-0.82909743751735165:4.6226093958427965] [-0.82887279757130417:6.520713762401865] [-0.82121232963621904:6.5177798788187973] [-0.81782251787902194:7.431694847720399] [-0.83455718645396704:4.5082449586423667] [-0.8438240336389039:6.2493552129866741] [-0.81251690501729912:6.3001477429775514] [-0.82799798139522829:5.6679113001728352] [-0.82236553657571754:5.1498160539625921] [-0.81640259132146054:5.4771275611713053] [-0.82318728997279433:6.3028979820974476] [-0.82571060202717783:6.7155612295057061] [-0.82465250612677488:5.647570254457789] [-0.81603546635546798:4.7837881706632661] [-0.79950637760956023:5.2550841234182446] [-0.7827264122656421:6.0769125099111854] [-0.84508986751159509:6.1603955485380819] [-0.80464889095526237:4.9628115982933574] [-0.78434967518249132:6.0968401012171691] [-0.8104342739627316:5.6780756197612945] [-0.82017207666702829:5.9630981450826548] [-0.83282937572408899:5.7742734239725442] [-0.78786754147207949:6.4144174093459556] [-0.80095959577573606:6.6051533352520089] [-0.79533604226630805:7.804802450132911] [-0.82125736930873816:5.2661239313748256] [-0.79820455515670652:5.7113732157506538] [-0.79723389375851383:6.2228729387677069] [-0.7926373644554463:5.3778934396950815] [-0.79714247766758062:6.1159928740143625] [-0.80962361183439335:6.6206616359812456] [-0.81970057253739914:5.4157550143663018] [-0.81631274430527589:5.9057145624634533] [-0.78995390037045099:6.3805114499518023] [-0.80493506594001996:6.0674324741192152] [-0.78487184245914987:7.3219374039365022] [-0.80768852978511529:6.9273254233534711] [-0.78747278506313667:5.8234581064478919] [-0.821547358190447:5.5877907507971463] [-0.77139174445452818:6.3083328219219164] [-0.79200867848738887:5.6206240972155097] [-0.77380729890836708:5.7435611593018798] [-0.78793941305969162:4.6424917057868127] [-0.82976553447545509:6.3705759987225159] [-0.7935563515076699:5.4612197806499561] [-0.80990805722233483:4.9560125885600215] [-0.77798560735555466:6.3565422208085574] [-0.809173816902373:7.3759641824978877] [-0.77107466975271943:7.4359650503455859] [-0.80668618703001227:4.9600789115856267] [-0.8101325935622532:6.1687484464532281] [-0.76665757397635814:6.7075576926757883] [-0.80202539737036571:5.0494633075523074] [-0.7952607088820618:7.2615812003779743] [-0.78786157375608212:4.7870273100642766] [-0.81708695697416567:6.0248972151697302] [-0.77850206672020383:7.293965670079201] [-0.80648806279446528:5.7930545448595439] [-0.80052311582031732:5.8204060066491108] [-0.77192358125225569:6.1041547023370093] [-0.81069874811411302:5.7468381753113951] [-0.81336040483524352:5.3403717377901954] [-0.77659065214770329:7.7130392450382539] [-0.7731251601905339:5.0208518572233265] [-0.82050665086115315:4.5774337451716125] [-0.80834834277818701:5.2427194034936377] [-0.77379324947329786:6.9602478749256473] [-0.79508062110701505:5.6960044542375385] [-0.76675240483952678:7.1728625203042551] [-0.80574581801105216:4.9522845561313504] [-0.76839894429715783:5.7955006612120163] [-0.8112347736061889:5.585762195646419] [-0.79849940402006003:6.2372951944724164] [-0.76820885244317072:6.7282273770518417] [-0.8086690119479556:6.988623076750013] [-0.76846973617619929:5.6456935450407002] [-0.80225780375607236:4.8275399226393976] [-0.79017420894354606:6.0610603939097434] [-0.77090135072921318:5.6919638815799578] [-0.80417782603647647:5.7784382796762017] [-0.76869680223879322:6.492803718119875] [-0.77179874488913802:6.0282625994149699] [-0.78170467750487149:5.8786549078209074] [-0.80345164880884989:6.2857145348059822] [-0.79143462353078775:5.4814650803939475] [-0.76625521397851948:6.8582764660233408] [-0.79125902402678749:7.6846732491376031] [-0.82635550653638912:5.3614047298384673] [-0.79510054691254417:6.8442884686251908] [-0.81102515782811968:5.9058372924284033] [-0.78345711251253558:6.1084713534209945] [-0.76826393648288516:5.9883057370831185] [-0.77587562902055973:5.2500013529834799] [-0.79158044160855312:6.9818465889505248] [-0.79280344978042439:4.7729725070311062] [-0.76331040370683612:6.5779686281046246] [-0.79223532327036927:5.0886080340827702] [-0.77679217837404935:6.6298548915379794] [-0.7848460767972556:5.7008065832306611] [-0.78517448331512252:6.0459391169773458] [-0.78525994446228364:6.3268555431850029] [-0.76880885423548373:5.9704589028757598] [-0.79684220240340864:4.9955622122560257] [-0.76761981453579398:7.555819154199539] [-0.79373699136053355:4.943215927186726] [-0.77485280833984604:5.9757951797468882] [-0.78548366565327044:5.2646244004771434] [-0.77803656050912795:6.31942606650244] [-0.75959068996113677:6.4336274797881439] [-0.8071176983837165:5.3900437178623672] [-0.76417778004527992:8.0193262166612964] [-0.82356398048932644:4.9985555918789197] [-0.80012201574297148:5.6545943571467134] [-0.7434649385085057:6.3681509540059933] [-0.77234930098305776:7.2286953385320931] [-0.77465106605308531:5.5615894204536058] [-0.78801469201338625:4.8895057436392326] [-0.8062559814905087:5.582376484602535] [-0.77505392730323031:5.3281668992692417] [-0.7866005280947439:5.7871011981432652] [-0.78969505118766481:6.1710085873075204] [-0.76855673317867168:6.6067365624244356] [-0.79631575458651793:5.9826408040491348] [-0.77456659298506814:6.0892930141932124] [-0.78558846821719852:5.1457629706035872] [-0.77455596168838414:5.982307136494863] [-0.81456985794925052:4.9410502257424804] [-0.77620941832066637:7.5079260306736053] [-0.76967835938610818:5.4878917598531851] [-0.77125940678588323:5.6714132420127639] [-0.78649395307380776:5.3883152644400365] [-0.77448387687153919:5.1900784521042098] [-0.74995952655949139:6.0562573772360668] [-0.7548423644601544:8.1466653220970002] [-0.8000440110041539:5.8708670529379763] [-0.75409046487250264:4.9795136145073968] [-0.76699592630275204:5.4125303237389764] [-0.74430291849697328:8.985463086339605] [-0.82116651486252734:4.802952772528954] [-0.78861061259579623:4.4301582302815863] [-0.77395604160825826:5.8927277766091564] [-0.78179272047403559:5.0894253075608082] [-0.76168629528825782:4.6915041647333258] [-0.79188723777797221:5.5105965165392368] [-0.7695843935937855:6.4795501213078017] [-0.76661822549330738:4.4837090226597143] [-0.7865809481070607:4.8008448476667276] [-0.75710358963917535:6.9611273856540272] [-0.78997456202089411:4.9640871349732842] [-0.77271285879087015:6.0734927981404301] [-0.77749676122910438:6.4883230768551741] [-0.75652131509618081:6.1136891824062785] [-0.81023111993326979:5.983085024196944] [-0.76452915282777811:7.9283745638724241] [-0.78175884002227169:5.9768266949620452] [-0.79500711415571657:5.5404472416422959] [-0.79505385367587678:5.2868004437084286] [-0.74278085709485253:5.7619800555333791] [-0.76670239962221631:5.7846072935972606] [-0.79188318321549411:5.9645409678269479] [-0.78576931078182899:5.9650376653252017] [-0.77101026372832326:6.6434564767224877] [-0.75135358639693994:6.8729789697541905] [-0.80208908399902878:7.2580712429472474] [-0.78044756896528167:5.6394323579091017] [-0.78442990073352137:5.6709378416792466] [-0.78472082216027772:6.9759486285403636] [-0.77589223125486628:6.5529077962504818] [-0.77427970516459355:5.8401324157944829] [-0.7569625518558919:5.6579339057831337] [-0.76767288338616668:6.4941749296786178] [-0.77995341726673018:6.7058390648791333] [-0.79748922529562261:5.5078579062316928] [-0.78366188092945666:5.3126523905145939] [-0.75139447514667179:6.7985917601984829] [-0.7724101227160115:5.8267699468962402] [-0.77057027319303817:6.4048360483652464] [-0.77365789606950597:4.8606188223472477] [-0.79847761765925884:5.4529484950692755] [-0.75946442087231936:4.8802780534198957] [-0.76705084833486248:7.3545776471600792] [-0.76852662099821334:5.7506103750996855] [-0.7625133198575601:6.1389980228584706] [-0.77538545677784998:5.9201404627522694] [-0.76902001650885032:6.0982134743515912] [-0.77526812484024021:7.4017688138126392] [-0.77787140912305264:5.6453074381287109] [-0.78619751112665137:5.3379091162590182] [-0.78838417582365494:5.5889527539691883] [-0.76373538309935307:5.7468111448141448] [-0.75259003030068861:6.2872198712963181] [-0.7633331131669655:5.2837086141225313] [-0.77375722871673502:5.3812163008303004] [-0.78405912470191919:5.0839168290936128] [-0.76906791846968114:6.0858789110566898] [-0.76748176282476233:5.0126763346009975] [-0.79466977720032506:4.7658756841557377] [-0.78707382181454977:5.3156820749264284] [-0.76376262665009487:6.8504995368174786] [-0.77170897696174512:5.6471239207583261] [-0.76895253329377111:5.8217883201717182] [-0.77861837494006014:5.2546821287998151] [-0.77047938455302301:5.3154164530625021] [-0.76678125789759821:5.3892181069179337] [-0.7694646489824859:8.2388208693713949] [-0.77618221604780635:5.6114119551924206] [-0.80378762376027779:5.214018153132332] [-0.77982628820703381:5.6321299454784359] [-0.76499498926072107:6.6210149193104888] [-0.80712974889850797:4.8248558450805321] [-0.79464063857930245:5.5218995475920947] [-0.77216428252516345:6.576082475725272] [-0.75643948755393209:6.3350160455419413] [-0.77525238963115328:5.9769497642196789] [-0.77476702096287209:6.3593394364044435] [-0.77838435994492061:4.6825305744971812] [-0.76651462405020088:5.9430022925987513] [-0.75931760072614729:6.1979433508459758] [-0.74911904230434923:7.1243695277483745] [-0.77895483098235563:5.8334770990406515] [-0.7712577784851341:5.8223031860247332] [-0.78884804913302964:5.5395580093552255] [-0.69841528109825635:5.8000474972447895]
tree_sizes=2053 2811 3363 3491 3459 3476 3469 3485 3466 3496 3467 3461 3472 3501 3484 3471 3479 3483 3475 3494 3451

Tree=0
num_leaves=18
num_cat=0
split_feature=200 348 107 200 93 0 103 50 110 120 101 50 81 44 0 0 0
split_gain=377.936 188.658 52.5376 21.3325 24.8882 18.097 17.4322 10.7185 8.74294 5.68466 3.23534 2.86743 0.729573 0.184977 2.84217e-14 2.84217e-14 1.42109e-14
threshold=0.093528844928380359 0.22474001810651265 -0.075648956617784341 -0.65068315329464632 1.0000000180025095e-35 0.88130483048485075 -0.16270031786665509 -0.57910587712549655 -0.37541456734257034 0.024485699612206067 -0.098341985063894952 -0.47577347447390111 0.44820076553840033 0.84089747614251198 1.7284097732073982 0.3089880618477901 -0.16903603601145548
decision_type=2 2 2 2 2 2 2 2 2 2 2 2 2 2 2 2 2
left_child=1 2 3 4 5 7 -4 8 -1 -3 11 -9 -5 14 -2 -13 -11
right_child=13 9 6 12 -6 -7 -8 10 -10 16 -12 15 -14 -15 -16 -17 -18
leaf_value=-0.085569937550064062 0.083193275040531645 0.023188577230542032 -0.055948053214516673 -0.11682238432610034 0.028643549758722936 -0.00014658302889833733 0.058191317619702677 -0.081105302296344661 -0.0025277218308820491 0.083193275040531506 -0.066818469484442256 -0.11682238432610031 -0.096820818389437124 0.073192492072200049 0.083193275040531645 -0.11682238432610034 0.083193275040531672
leaf_weight=7.9993734359741211 56.49557489156723 4.9996083974838283 5.7495496571063995 51.745946913957596 5.4995692372322074 5.9995300769805899 7.9993734359741193 6.999451756477348 5.2495888173580152 5.4995692372322145 4.9996083974838319 18.998511910438541 4.9996083974838248 4.9996083974838248 4.9996083974838248 9.499255955219267 13.248962253332133
leaf_count=32 226 20 23 207 22 24 32 28 21 22 20 76 20 20 20 38 53
internal_value=-0.0176996 -0.0594511 -0.0821972 -0.0926402 -0.0731408 -0.0825101 0.0104603 -0.0917041 -0.0526664 0.0705607 -0.104476 -0.10978 -0.11506 0.0824413 0.0831933 -0.116822 0.0831933
internal_weight=0 159.488 135.739 121.99 65.2449 59.7453 13.7489 53.7458 13.249 23.7481 40.4968 35.4972 56.7456 66.4948 61.4952 28.4978 18.7485
internal_count=904 638 543 488 261 239 55 215 53 95 162 142 227 266 246 114 75
is_linear=0
shrinkage=1


Tree=1
num_leaves=25
num_cat=0
split_feature=200 113 460 200 100 0 49 113 476 85 0 200 5 49 249 274 120 288 81 187 44 151 166 0
split_gain=341.772 166.855 52.107 31.0774 30.6232 18.7467 13.1426 10.7524 10.7363 4.86964 6.11035 2.60411 1.25021 0.186257 0.172564 0.0153584 0.00534911 0.00341345 0.00313868 0.000890124 0.000336765 0.000312951 8.5461e-05 5.68434e-14
threshold=1.0000000180025095e-35 0.056053091799458249 0.35833909731927105 -0.73053247451282888 -0.0045547798840126445 0.88130483048485075 -0.40283772082600117 -0.18769553001823089 -0.31760505577969467 -0.65129616100757781 -1.1607702557210835 0.23951900789374567 -0.77075245086478639 2.0856635756005599 -0.58013076383205509 -0.1346215950892434 0.17260336585353223 -0.44579807401155364 0.44820076553840033 -0.69383955214331927 0.69700669617974875 0.62562735754218013 -0.17563550888337734 1.282923974824888
decision_type=2 2 2 2 2 2 2 2 2 2 2 2 2 2 2 2 2 2 2 2 2 2 2 2
left_child=1 2 3 4 5 6 7 9 -3 10 -1 -2 -8 15 -14 18 -10 -16 19 -5 23 -18 -21 -13
right_child=11 8 -4 13 -6 -7 12 -9 16 -11 -12 20 14 -15 17 -17 21 -19 -20 22 -22 -23 -24 -25
leaf_value=-0.06776299650835621 0.058529447770958171 0.015947235758668299 0.081339330141227836 -0.095167140478987777 0.070985282642185385 0.030502115919657319 -0.06556488963608699 0.025544950564461263 0.098082880750660906 -0.089488120284187261 0.0027133694588634179 0.096008662413080315 -0.08499615812021899 -0.084947157702230935 -0.094803703360236136 -0.09726228748164896 0.096500010442447173 -0.096193566889086549 -0.095916713513763047 -0.094487163476973612 0.096427068348263867 0.096008662413080315 -0.09470812076103996 0.096008662413080315
leaf_weight=6.988333404064182 4.990291863679885 5.241608306765559 5.9927265346050254 5.9822926819324485 5.2454254627227774 5.7497531920671454 4.9870619773864773 5.242218703031539 4.9958006143569973 6.7399426400661477 5.4929322153329849 49.664017260074615 4.9841910153627422 4.9833982586860648 8.473793983459478 6.7365470230579367 4.9930023252964011 9.2289451360702461 4.9890441000461569 35.877450942993157 5.2427800446748725 9.2340132594108564 4.9840751588344636 8.4853094816207868
leaf_count=28 20 21 24 24 21 23 20 21 20 27 22 199 20 20 34 27 20 37 20 144 21 37 20 34
internal_value=0 -0.0406055 -0.0627293 -0.0695444 -0.0446976 -0.0551802 -0.0646293 -0.0379292 0.079379 -0.0552406 -0.0367468 0.0933056 -0.0882318 -0.0942268 -0.0932144 -0.0950164 0.0966754 -0.0955283 -0.0947245 -0.0945975 0.0960433 0.0961811 -0.0945141 0.0960087
internal_weight=0 157.143 132.678 126.685 63.1326 57.8872 52.1374 24.4634 24.4644 19.2212 12.4813 68.3824 27.674 63.5528 22.6869 58.5694 19.2228 17.7027 51.8329 46.8438 63.3921 14.227 40.8615 58.1493
internal_count=904 630 532 508 253 232 209 98 98 77 50 274 111 255 91 235 77 71 208 188 254 57 164 233
is_linear=0
shrinkage=0.05


Tree=2
num_leaves=30
num_cat=0
split_feature=200 348 107 94 277 0 50 132 91 200 196 44 492 323 340 200 50 113 235 6 200 113 120 44 98 171 47 430 0
split_gain=310.631 155.996 44.5225 19.0322 15.4215 14.3009 7.5596 5.16122 3.80998 3.21816 8.1429 0.695558 0.580638 0.204492 0.180032 0.0103762 0.0107191 0.00585024 0.00343305 0.00183897 0.00109047 0.00105889 0.000924404 0.000134422 0.000105948 1.96609e-05 6.55633e-06 1.22924e-06 2.84217e-14
threshold=0.093528844928380359 0.22474001810651265 -0.075648956617784341 0.40320042716947807 -0.46787004716380437 0.96629595236539512 -0.62760852291498825 -0.2863710648872661 -0.064381627612787498 -0.76008090562248209 -0.5097778366190665 0.56388524233648385 -0.59288016302238911 -0.7192467669931436 -0.66112707489000455 -0.7261770646724085 -0.38248312973237947 0.086134412591758053 -0.65558674096948477 -0.15265795360160897 0.34670689946416694 -0.080994353536214606 0.65953310422576916 0.65659896212833913 -0.15806484199513213 -0.37473338824211283 -0.14632641136104749 -0.54735199420542269 -0.8389515406774154
decision_type=2 2 2 2 2 2 2 2 2 2 2 2 2 2 2 2 2 2 2 2 2 2 2 2 2 2 2 2 2
left_child=1 2 3 5 -4 6 -1 -3 9 10 12 13 -8 -11 -2 16 -15 -9 -17 -18 -16 24 -19 28 25 26 27 -20 -22
right_child=14 7 4 -5 -6 -7 8 17 -10 11 -12 -13 -14 15 20 18 19 22 21 -21 23 -23 -24 -25 -26 -27 -28 -29 -30
leaf_value=-0.032991385765018616 0.081983210302743248 0.035346155529643382 0.096752631268700331 0.024896047556366069 -0.013474523017639156 -0.0019023215520062411 -0.093409395321950028 0.094152464134325278 -0.050258084350217828 -0.080691381379577626 -0.01592742215389794 -0.071029738238365239 -0.072373125943631239 -0.093757481093054415 0.092577750713623105 -0.092003294029948945 -0.091939669704652227 0.09269372433366152 -0.090475906671932449 -0.090654670781973465 0.091796850144752459 -0.091339265023856295 0.091838484813820093 0.092063556721883655 -0.09074899413379782 -0.090576816677439553 -0.09053166653845493 -0.090444487676795748 0.091796850144752459
leaf_weight=8.9524128735065442 4.9624779075384131 4.9724180400371578 4.9890516996383658 5.2265185564756385 8.717956215143202 6.728530064225196 9.6911084353923798 4.9760549664497402 9.1849375665187818 4.9474407434463421 5.7164644896984091 4.9504950642585746 4.9586744159460077 7.2135084271430996 5.21581707894802 5.4522735476493684 5.4534208923578271 4.9676329046487799 8.4058109819889015 5.6885485351085565 7.1921048909425727 4.95224681496624 8.6807954758405668 5.2109525650739661 5.6900304853916159 7.9133446663618114 4.9452911317348471 4.9441881477832785 43.400632962584496
leaf_count=36 20 20 20 21 35 27 39 20 37 20 23 20 20 29 21 22 22 20 34 23 29 20 35 21 23 32 20 20 175
internal_value=0 -0.0379888 -0.0587603 -0.068434 0.0266458 -0.0726468 -0.0770114 0.0806022 -0.080948 -0.0840483 -0.0665397 -0.0891021 -0.086289 -0.0904658 0.0911416 -0.0912631 -0.0922558 0.0926848 -0.0908323 -0.0912836 0.0918864 -0.090659 0.0921498 0.0918218 -0.0905534 -0.090511 -0.0904825 -0.0904643 0.0917969
internal_weight=0 158.319 134.722 121.015 13.707 115.789 109.06 23.5969 100.108 90.9228 20.3662 70.5566 14.6498 65.6061 65.982 60.6587 18.3555 18.6245 42.3032 11.142 61.0195 36.8509 13.6484 55.8037 31.8987 26.2086 18.2953 13.35 50.5927
internal_count=904 638 543 488 55 467 440 95 404 367 82 285 59 265 266 245 74 75 171 45 246 149 55 225 129 106 74 54 204
is_linear=0
shrinkage=0.05


Tree=3
num_leaves=31
num_cat=0
split_feature=200 113 460 98 200 111 0 50 318 103 153 200 312 482 348 280 108 92 200 28 299 304 357 451 44 340 88 36 413 320
split_gain=283.131 141.074 47.7191 27.1238 20.6951 17.2182 6.65977 6.76841 5.73757 3.17041 2.70972 2.18711 0.932085 0.153923 0.0459515 0.0293967 0.0197553 0.0076808 0.0051218 0.00900154 0.00367227 0.00245781 0.00112287 0.000499812 0.000158537 0.000185064 0.000136861 9.56109e-05 1.01824e-05 1.4939e-05
threshold=1.0000000180025095e-35 0.10892256882567523 0.35833909731927105 0.14623196720208795 -0.7543402583353046 -0.20851216596305835 0.79843516401334969 -0.46989461146103834 -0.5548693408422698 -0.21247745484911906 0.0090861404420468344 0.23951900789374567 -0.68925818581871845 -0.57883578613301989 0.26533713801815628 -0.073370937367660163 -0.074175603277641042 -0.087201051982653238 -0.67850691451380085 -0.28614640113935191 -0.54410195450346011 -0.62776497009151522 1.3403729724977609 -0.58855656123269096 0.69700669617974875 -0.64373113044519303 0.16039300225119091 0.82680160126969893 -0.46207009445306496 -0.53561720494022957
decision_type=2 2 2 2 2 2 2 2 2 2 2 2 2 2 2 2 2 2 2 2 2 2 2 2 2 2 2 2 2 2
left_child=1 2 3 4 5 6 7 8 -1 -3 12 -2 -6 -9 -11 16 17 18 19 -14 -15 -20 -16 -23 25 -13 27 28 29 -25
right_child=11 9 -4 -5 10 -7 -8 13 -10 14 -12 24 15 20 22 -17 -18 -19 21 -21 -22 23 -24 26 -26 -27 -28 -29 -30 -31
leaf_value=-0.063081787772190992 0.053646241552473342 0.045011899856540166 0.076378378448528961 0.031147682975186552 -0.06968839923870894 0.040682532810844607 0.00040848677729551816 -0.077961665392549645 0.001439743742190548 0.094268125585438164 -0.053164882878201508 0.08845057273490009 -0.090113145565503802 -0.089658804176815043 0.088199495686568874 -0.092047358283545377 -0.091154390506903493 -0.089519050622886939 -0.088375169978057153 -0.087306019436756921 -0.087772817379469556 -0.087627494235773581 0.089185447093494186 -0.086970207884777412 0.088446599642885315 0.08812965789157727 -0.087348028610851017 -0.087249994034189926 -0.086953314710434257 -0.087093813403004372
leaf_weight=8.6659526824951154 4.9483032524585715 4.9456736296415356 6.4299148321151725 7.1797164231538764 7.377658784389495 5.7119935154914847 4.9915982484817496 4.9058600068092337 5.7196758091449729 5.4645372331142452 6.6397655159234992 4.9147315621376029 5.1820394247770309 5.177135989069936 5.6468253284692747 5.1923039853572908 4.9422101825475684 6.1570382714271537 5.1562372297048489 6.3618903011083514 5.1471834480762526 5.6335627138614539 5.9101491570472717 4.8877710402011836 5.1604050397872916 52.283942848443985 4.8947874158620825 4.8931116461753836 7.086781054735213 4.8901592642068863
leaf_count=35 20 20 26 29 30 23 20 20 23 22 27 20 21 21 23 21 20 25 21 26 21 23 24 20 21 213 20 20 29 20
internal_value=0 -0.0371476 -0.0565053 -0.063244 -0.0689097 -0.0397436 -0.0530181 -0.0620228 -0.0374283 0.0802512 -0.0837399 0.0856422 -0.086534 -0.0852536 0.0904901 -0.0884379 -0.088126 -0.0878546 -0.0876454 -0.0885661 -0.0887185 -0.0873615 0.0887037 -0.0871996 0.0881812 0.0881572 -0.0871091 -0.0870554 -0.086999 -0.087032
internal_weight=0 155.192 133.224 126.794 119.615 40.3194 34.6074 29.6158 14.3856 21.9672 79.2953 67.3074 72.6556 15.2302 17.0215 65.2779 60.0856 55.1434 48.9863 11.5439 10.3243 37.4424 11.557 32.2862 62.3591 57.1987 26.6526 21.7578 16.8647 9.77793
internal_count=904 630 541 515 486 163 140 120 58 89 323 274 296 62 69 266 245 225 200 47 42 153 47 132 254 233 109 89 69 40
is_linear=0
shrinkage=0.05


Tree=4
num_leaves=31
num_cat=0
split_feature=480 102 0 110 107 23 337 215 91 248 129 431 106 92 121 106 339 27 43 140 108 454 52 467 287 488 29 143 327 409
split_gain=191.549 60.6428 19.0262 18.0022 14.0993 12.0415 11.9179 9.29601 9.35955 12.1024 5.34466 6.16555 4.15634 8.19585 3.98649 3.5302 2.36107 1.80814 1.19723 1.16239 1.64002 0.891481 0.440691 0.0294895 0.0195515 0.0109628 0.00728311 0.00726559 0.00218035 0.00201142
threshold=0.075256620489971851 -0.04451165550173123 0.96629595236539512 0.09405695668057594 -0.17940582262388208 0.94478749985812716 -0.32039148187160932 -0.7898058663884775 -0.064381627612787498 -0.40024153960730274 0.028904003079082981 -0.52521984263458765 -0.25577377803576501 -0.1459424207908516 -0.87839804276056477 -0.067210393484055483 -0.54553813488481517 -1.2087158081304139 0.030387260819839616 -0.28909927790591755 -0.22017559425572689 -0.45498359336209288 -0.13963359313463283 -0.21083147990248777 -0.35902311921196578 -0.60362974357750032 -0.05695103474012838 -0.087816335055338327 -0.46135510204640912 0.2463651279343361
decision_type=2 2 2 2 2 2 2 2 2 2 2 2 2 2 2 2 2 2 2 2 2 2 2 2 2 2 2 2 2 2
left_child=1 2 3 7 -3 -4 -2 -1 10 -10 11 12 14 -14 -9 -6 18 -13 22 23 -21 26 25 28 -17 -16 -22 -8 -19 -29
right_child=6 4 5 -5 15 -7 27 8 9 -11 -12 17 13 -15 16 24 -18 19 -20 20 21 -23 -24 -25 -26 -27 -28 29 -30 -31
leaf_value=-0.0019838448753657007 0.0072055716735907691 -0.014684277001971033 0.081358108366687068 0.039349765460208685 0.041970069190366388 -0.026681588885186278 0.087158882492437556 -0.015813081964277855 0.036746296558166323 -0.061620349458662883 -0.0079601773404674725 -0.047601077800188907 0.01138846978718773 -0.070677770567110859 -0.084770794289126455 0.090099618737835466 -0.040376733252464589 -0.084384751185159396 -0.055359999498567271 -0.046092499401419934 -0.087395061873246013 -0.060034847262513728 -0.068114217380302586 -0.089107750428050914 0.085732744610757389 -0.088009003016192022 -0.084748506533580237 0.086009132608866584 -0.085610196295948182 0.085241541262853104
leaf_weight=9.3085871934890729 5.3338905423879615 7.0665393322706249 4.9123231172561628 5.9101479798555365 7.0973172187805238 5.4296338707208633 7.078395962715148 4.877355650067325 6.1581569910049438 6.3524746894836408 4.866030514240264 5.637333095073692 7.0650748908519745 5.3431645035743625 5.3199727237224579 4.9252267479896581 7.5080177336931291 11.345812126994128 6.7897788137197486 5.5804668515920666 4.8819923996925354 4.8447844088077732 4.8401668071746835 5.1418115943670299 5.3446148484945208 5.1379005461931229 5.5601688027381897 11.428777828812597 5.3372726589441291 33.70200814306736
leaf_count=38 22 29 20 24 29 22 29 20 25 26 20 23 29 22 22 20 31 47 28 23 20 20 20 21 22 21 23 47 22 139
internal_value=0 -0.0277516 -0.040594 -0.0458723 0.0448593 0.0246362 0.0783964 -0.0500043 -0.0539746 -0.013201 -0.0590717 -0.0616839 -0.0487652 -0.0239504 -0.057697 0.069087 -0.0645995 -0.0742155 -0.0728332 -0.0777298 -0.0692923 -0.0777614 -0.0805884 -0.0857971 0.087827 -0.0863617 -0.0859858 0.0856695 -0.0847768 0.0854359
internal_weight=0 162.582 138.148 127.806 24.4337 10.342 57.5431 121.896 112.588 12.5106 100.077 95.2111 46.8814 12.4082 34.4732 17.3672 29.5958 48.3296 22.0878 42.6923 20.8674 15.2869 15.298 21.8249 10.2698 10.4579 10.4422 52.2092 16.6831 45.1308
internal_count=904 667 567 525 100 42 237 501 463 51 412 392 193 51 142 71 122 199 91 176 86 63 63 90 42 43 43 215 69 186
is_linear=0
shrinkage=0.05


Tree=5
num_leaves=31
num_cat=0
split_feature=200 348 107 200 93 103 0 50 110 101 50 143 84 42 463 140 48 214 0 115 100 423 100 322 480 119 481 363 266 45
split_gain=246.605 122.145 36.5411 17.1972 21.2639 12.8566 12.4159 8.29232 7.13483 2.47836 2.33339 2.01542 0.62041 0.182915 0.0394025 0.022013 0.0155813 0.0152862 0.0115361 0.0133673 0.00774135 0.00311371 0.00282396 0.00280986 0.00194329 0.00154811 0.00140887 0.00148344 0.00100869 0.000984564
threshold=0.093528844928380359 0.26533713801815628 -0.075648956617784341 -0.65068315329464632 1.0000000180025095e-35 -0.16270031786665509 0.88130483048485075 -0.57910587712549655 -0.37541456734257034 -0.098341985063894952 -0.47577347447390111 -0.044749647774395877 0.17084631175801543 0.31646859633766106 -0.30293289065891338 -0.78667502427748059 -0.4629480932372832 0.43824360594244799 0.75154978473798839 -0.054261709304719692 -0.13307874228743957 -0.45715779682377816 -0.23392329358852815 -0.37406019389505124 0.039722985132272952 -0.35862227600198099 -0.55407071176320233 -0.58358972737623083 0.11332300650210077 -0.29520871817285205
decision_type=2 2 2 2 2 2 2 2 2 2 2 2 2 2 2 2 2 2 2 2 2 2 2 2 2 2 2 2 2 2
left_child=1 2 3 4 6 -4 7 8 -1 10 -9 -3 15 14 20 -5 -12 -13 19 23 25 22 -18 26 -16 -2 27 -17 -26 -19
right_child=13 11 5 12 -6 -7 -8 9 -10 -11 16 17 -14 -15 24 18 21 29 -20 -21 -22 -23 -24 -25 28 -27 -28 -29 -30 -31
leaf_value=-0.056163317894257214 0.086214803555733424 0.047409400970166458 -0.032733259597927208 -0.086266360874705392 0.046818991250647361 0.065474484698627697 0.015472442305262275 -0.050688177967389225 0.019345785344035738 -0.038769875455457008 -0.085876829976546859 0.086177167470721197 -0.064516938405381447 0.073281003041235512 0.083175754791303236 -0.081835509529402869 -0.082420208962009134 0.08255488008582107 -0.085240393244596979 -0.084929006651804806 0.083553343917668971 -0.08190507646965911 -0.08378076284831576 -0.083161636987302529 0.082780971423057736 0.085216380438611739 -0.081719565584868092 -0.082945495379394635 0.08211682842582585 0.08349541178145542
leaf_weight=7.8410954028367996 8.0371859073638916 4.8342252969741848 5.6715781986713401 5.583368554711341 5.9137751609086981 8.0805849730968458 5.9891576170921317 6.8202700167894283 5.2051582932472211 4.8841279000043931 5.090481042861934 5.5803624242544201 4.815656676888465 4.8032214045524588 7.6682272851467124 5.4660000652074814 6.6792885810136768 6.2084703147411382 4.8381887525320044 5.5525994747877112 5.5233068615198126 6.6571180671453591 8.8901615887880308 7.1862473189830807 7.6505037695169475 7.5106751471757898 14.7193633466959 6.6992325186729396 22.622524812817574 5.0424306541681236
leaf_count=32 33 20 23 23 24 33 24 28 21 20 21 23 20 20 32 23 28 26 20 23 23 28 37 30 32 31 62 28 95 21
internal_value=0 -0.0342023 -0.0521884 -0.0611181 -0.0435035 0.0249723 -0.0527039 -0.0605459 -0.0260369 -0.0720835 -0.0768498 0.0758648 -0.0816578 0.0826639 0.0834276 -0.0833072 -0.0833816 0.0840376 -0.0829356 -0.0826541 0.0851613 -0.0828101 -0.0831971 -0.0822834 0.0824648 0.0857325 -0.0820486 -0.0824468 0.0822847 0.0829764
internal_weight=0 154.249 132.583 118.831 63.9706 13.7522 58.0569 52.0677 13.0463 39.0214 34.1373 21.6655 54.8607 63.8156 59.0124 50.045 27.317 16.8313 44.4616 39.6234 21.0712 22.2266 15.5695 34.0708 37.9413 15.5479 26.8846 12.1652 30.273 11.2509
internal_count=904 638 548 492 263 56 239 215 53 162 142 90 229 266 246 209 114 70 186 166 87 93 65 143 159 64 113 51 127 47
is_linear=0
shrinkage=0.05


Tree=6
num_leaves=31
num_cat=0
split_feature=200 113 460 0 98 200 111 49 439 463 129 153 169 75 362 42 107 348 280 463 221 92 113 48 492 292 106 200 108 431
split_gain=226.51 113.396 37.7766 22.0103 16.3864 12.6196 9.19607 5.07754 4.90753 4.37959 2.80944 2.57139 0.547624 0.514706 0.180353 0.175299 0.0589351 0.058791 0.0413405 0.0305987 0.0230141 0.0083899 0.00687484 0.00448786 0.00544729 0.00247451 0.00199326 0.00184869 0.00119433 0.00110089
threshold=0.093528844928380359 0.10892256882567523 0.35833909731927105 1.2072894368331915 0.14623196720208795 -0.7543402583353046 -0.21327323824131886 -0.29527578143478145 -0.55149546279191597 -0.6290967280257076 -0.19824254159947352 0.0090861404420468344 -0.45613296490245864 0.99783351542222387 -0.71290948607104132 0.31646859633766106 -0.12067577866734659 0.26533713801815628 -0.08272049187385265 -0.30293289065891338 -0.65963440607773871 -0.090304793362866731 -0.052154580322832524 -0.4629480932372832 -0.47819533555082544 0.69077998686825814 -0.18598729131423597 -0.094074802635579907 -0.24024953252302378 -0.52521984263458765
decision_type=2 2 2 2 2 2 2 2 2 2 2 2 2 2 2 2 2 2 2 2 2 2 2 2 2 2 2 2 2 2
left_child=1 2 3 4 5 6 7 8 9 -1 -3 13 -9 14 -7 19 18 -12 20 22 -16 23 28 24 -22 -19 -21 29 -2 -25
right_child=15 10 -4 -5 -6 11 -8 12 -10 -11 17 -13 -14 -15 16 -17 -18 25 -20 26 21 -23 -24 27 -26 -27 -28 -29 -30 -31
leaf_value=-0.020907134727014019 0.0831626104410495 0.03927283474480682 0.069524291830202256 0.047012678828383926 0.019188185792514474 -0.071253623945909547 0.022647864991558526 -0.083715160848617451 0.00019981788943908212 -0.079467818821106151 0.087227442579553588 -0.04593649664321868 -0.062173217915408745 -0.063991092010726003 -0.083634442664862141 0.070741091955897395 -0.086670286864697133 0.081593394920733461 -0.085358899869091787 0.080546533146684793 -0.079730608141896364 -0.082131899055316232 0.080613001884725755 -0.079863352647170052 -0.081752826225990061 0.080125282632265205 0.079690030181317026 -0.080445641268621776 0.082290831469634562 -0.079115875409910996
leaf_weight=5.8535420894622785 9.1084961444139516 4.8138779997825649 6.2393877506256095 4.9265946000814429 6.0725108236074439 4.7346792370080868 4.9014841318130484 7.8670627176761627 6.5914135575294521 7.0236830860376358 4.8492664992809322 6.2264343351125708 4.7203885316848737 4.9916340559720984 5.267717257142059 4.7287742793560019 4.8550705909729137 4.742303401231764 4.8037805110216132 8.940020874142645 7.2423734962940216 4.7499184459447923 4.7069458514451972 7.2542460709810195 6.164857178926459 7.2705648243427277 28.28127346932888 4.7002175897359946 6.9085788279771814 15.347393304109573
leaf_count=24 38 20 26 20 25 20 20 33 27 29 20 26 20 21 22 20 20 20 20 38 31 20 20 31 26 31 121 20 29 66
internal_value=0 -0.032943 -0.0505292 -0.0565557 -0.0608302 -0.0651191 -0.041136 -0.0508888 -0.0348879 -0.0528482 0.0729627 -0.07673 -0.0756368 -0.0794647 -0.0806508 0.0799977 -0.0813876 0.0825806 -0.0809257 0.0807531 -0.0805059 -0.0801433 0.0822929 -0.0799113 -0.0806605 0.0807048 0.0798957 -0.0795434 0.0827866 -0.0793558
internal_weight=0 152.21 130.534 124.295 119.368 113.296 36.9576 32.0561 19.4686 12.8772 21.676 76.3383 12.5875 70.1119 65.1203 62.6741 60.3856 16.8621 55.5305 57.9453 50.7267 45.459 20.724 40.7091 13.4072 12.0129 37.2213 27.3019 16.0171 22.6016
internal_count=904 638 547 521 501 476 153 133 80 53 91 323 53 297 276 266 256 71 236 246 216 194 87 174 57 51 159 117 67 97
is_linear=0
shrinkage=0.05


Tree=7
num_leaves=31
num_cat=0
split_feature=200 113 460 200 100 0 50 446 112 48 127 400 200 351 222 274 468 385 102 50 203 91 103 480 107 457 291 229 426 431
split_gain=208.708 102.448 34.9953 22.1437 22.6868 13.1234 10.6503 7.59574 9.87179 3.45735 2.70996 1.9494 1.73893 1.12865 0.176295 0.0626568 0.0529991 0.0230118 0.0132237 0.0134235 0.0113962 0.00683367 0.00526899 0.0031963 0.00310587 0.00232996 0.00162735 0.0012214 0.000774662 0.000621312
threshold=1.0000000180025095e-35 0.10892256882567523 0.35833909731927105 -0.73053247451282888 -0.0045547798840126445 0.88130483048485075 -0.46989461146103834 -0.47822594764636223 -0.29007196533227225 -0.58694551430240904 -0.21740513314580182 -0.38322751055788207 0.23951900789374567 0.028701408957770232 -0.57505000022245889 -0.20569662893064269 -0.06520868821357502 -0.39953947388843908 -0.17361838064428228 -0.2826635746650894 -0.74847538002349512 -0.077143102702106642 -0.14310693271368105 0.039722985132272952 -0.20128636013966464 -0.62022055923167851 0.81887693947534534 -0.21069722061997651 -0.40178625220483466 -0.52521984263458765
decision_type=2 2 2 2 2 2 2 2 2 2 2 2 2 2 2 2 2 2 2 2 2 2 2 2 2 2 2 2 2 2
left_child=1 2 3 4 5 6 7 8 9 -1 -3 14 -2 15 -8 20 -12 22 19 -16 -5 24 -14 27 25 -22 -18 -19 29 -27
right_child=12 10 -4 13 -6 -7 11 -9 -10 -11 16 -13 17 -15 18 -17 26 23 -20 -21 21 -23 -24 -25 -26 28 -28 -29 -30 -31
leaf_value=-0.0090171326161461226 0.046914002205843811 0.038059122807759138 0.066966223743611386 -0.080316316095082801 0.064141726280916106 0.028186898312355088 -0.069409676344188195 -0.075459745287668648 0.041674421101524188 -0.066623418637298579 0.084714949578342053 -0.042897341697548164 0.080327225693650667 -0.053297532036803111 -0.081145867956237086 -0.082864840347946167 0.079023505037492864 0.077899395252315262 -0.082522010173374849 -0.078013284060464164 -0.078150634822676701 -0.079714774610301908 0.078398903749676507 0.077419030564682551 -0.078719651198169038 -0.077375810655983257 0.077811757957212652 0.079049192419738068 -0.077764815142747745 -0.076759991321284332
leaf_weight=5.1198799014091527 4.7661151885986319 4.9844023287296322 6.155951812863349 5.6168187856674185 5.3574492037296286 5.7232348173856726 4.6169229894876507 5.7434695810079566 6.1217073500156411 5.3017474114894867 4.7904313355684307 4.7115558236837414 13.154776871204378 4.6590636372566214 6.5768131613731429 8.5368344932794553 5.5727242678403801 4.5954001843929291 4.9959337562322572 7.1242818385362634 8.9783096313476509 4.6684734821319642 4.8480242490768424 31.332551717758179 6.0155877023935309 7.3139410614967337 5.5106329470872879 4.6436177343130094 4.5886476784944561 9.3088349550962466
leaf_count=21 20 21 26 24 22 23 20 24 25 22 20 20 56 20 28 36 24 20 21 31 39 20 21 137 26 32 24 20 20 41
internal_value=0 -0.0324902 -0.0493281 -0.0552408 -0.0341575 -0.0435557 -0.0517167 -0.0259198 -0.00872065 -0.0383229 0.0702214 -0.0722312 0.075957 -0.0769269 -0.0781594 -0.0789275 0.0803204 0.0783202 -0.0803199 -0.079517 -0.0782046 -0.0779144 0.0798079 0.07766 -0.0776822 -0.0774755 0.078421 0.0784773 -0.0771897 -0.0770309
internal_weight=0 148.094 127.235 121.08 61.393 56.0355 50.3123 22.2868 16.5433 10.4216 20.8582 28.0255 63.3405 59.6865 23.314 55.0274 15.8738 58.5744 18.697 13.7011 46.4906 40.8738 18.0028 40.5716 36.2053 30.1897 11.0834 9.23902 21.2114 16.6228
internal_count=904 630 541 515 257 235 212 92 68 43 89 120 274 258 100 238 68 254 80 59 202 178 77 177 158 132 48 40 93 73
is_linear=0
shrinkage=0.05


Tree=8
num_leaves=31
num_cat=0
split_feature=200 472 107 0 277 200 91 88 124 49 402 332 225 90 42 452 113 463 250 0 301 115 59 113 319 210 200 272 200 447
split_gain=192.563 97.2948 30.9881 16.2782 10.9374 9.51851 9.00487 6.62936 9.95922 4.39625 3.18465 2.81816 0.85479 0.176132 0.175734 0.058489 0.0265033 0.0201974 0.0135697 0.0137493 0.0113319 0.00739782 0.00591367 0.00421256 0.00386989 0.00172247 0.00132055 0.00123228 0.00113819 0.000996317
threshold=0.093528844928380359 0.24878595123141653 -0.075648956617784341 1.1842949432054526 -0.46787004716380437 -0.65671046099212826 -0.042020158508300078 -0.66105859167946324 -0.63423616154415818 -0.62828774643851204 0.18238117014385835 -0.58255572512036335 -0.49627735497357522 -0.0030065400094127464 0.31646859633766106 -0.16035558344704728 0.13407373755105259 -0.30293289065891338 -0.3697152211356618 -0.5170746562283749 -0.67918192747907302 -0.091052104958985372 -0.094190910512476578 -0.052154580322832524 1.2281551105335347 -0.6679433933437402 0.6223467004718507 -0.38844066811232408 1.141025170137633 -0.54444234842943517
decision_type=2 2 2 2 2 2 2 2 2 2 2 2 2 2 2 2 2 2 2 2 2 2 2 2 2 2 2 2 2 2
left_child=1 2 3 5 -4 6 7 8 9 -1 -3 -9 -13 15 17 20 -12 23 19 -14 -7 25 -21 28 -18 -22 -19 29 -2 -27
right_child=14 10 4 -5 -6 13 -8 11 -10 -11 16 12 18 -15 -16 -17 24 26 -20 22 21 -23 -24 -25 -26 27 -28 -29 -30 -31
leaf_value=-0.02088379015496622 0.078534579040371033 0.031173633610619263 0.084750694640385538 0.033532298095690916 -0.0091580963534647879 -0.078127353374904035 0.01727482436762318 -0.038691590966261347 0.031785872007675124 -0.080516009801021027 0.081183290310937128 -0.058653504640343024 -0.079747116789900319 -0.066437447766467775 0.066049771441663269 -0.081665321317400813 0.077795991377650808 0.07616432972952486 -0.080509279264817213 -0.075104141361975393 -0.07635039457426665 -0.077455906050824322 -0.077666450129279058 0.076204753514311274 0.07596771591261578 -0.075438677209387517 0.075406517281004753 -0.0759747967081741 0.077630431221213672 -0.07472334886652808
leaf_weight=6.0483225882053384 5.3166194260120418 4.5870226174592998 4.7875080704689017 4.8576278239488593 8.7994791716337186 5.9611770510673514 5.1101751774549475 7.8978274017572359 5.0816020667552939 6.3205782622098932 5.1532505899667767 7.7222352921962729 4.6567800343036643 4.5390837192535392 4.5475439876317969 5.369818687438964 5.732217922806738 7.2098245918750754 5.3619276136159995 4.4493385404348356 4.5141982436180106 5.467317163944247 4.5592891722917557 4.5078348666429511 5.8464291989803314 10.498001590371134 28.367474436759949 5.1715577095747021 10.080448910593985 9.0761959999799711
leaf_count=25 23 20 20 20 37 26 21 34 21 27 22 33 20 20 20 23 25 32 23 20 20 24 20 20 26 47 127 23 44 41
internal_value=0 -0.0307165 -0.0473999 -0.0560023 0.0239316 -0.0600367 -0.0460643 -0.0522771 -0.0271451 -0.0513562 0.068082 -0.0649351 -0.0726835 -0.0758346 0.0754991 -0.0767607 0.0782004 0.0762737 -0.0783776 -0.0775412 -0.0761134 -0.0757677 -0.0764009 0.0775491 0.0768728 -0.0754522 0.0755601 -0.0752884 0.0779426 -0.075107
internal_weight=0 147.569 126.25 112.663 13.587 107.805 57.2081 52.0979 17.4505 12.3689 21.3189 34.6474 26.7496 50.5974 60.0297 46.0583 16.7319 55.4822 19.0273 13.6654 40.6884 34.7273 9.00863 19.9049 11.5786 29.26 35.5773 24.7458 15.3971 19.5742
internal_count=904 638 545 488 57 468 244 223 73 52 93 150 116 224 266 204 73 246 83 60 181 155 40 87 51 131 159 111 67 88
is_linear=0
shrinkage=0.05


Tree=9
num_leaves=31
num_cat=0
split_feature=200 113 102 99 200 195 382 94 257 253 48 232 200 351 375 447 476 286 111 385 96 156 103 91 146 480 299 454 229 352
split_gain=178.018 88.3965 30.8921 17.6089 13.0917 8.24123 8.45282 6.24242 5.23078 3.47485 2.78089 2.62362 1.61748 0.860216 0.354307 0.0707353 0.0417532 0.0416908 0.0146957 0.0143595 0.0143343 0.0126623 0.00330327 0.00316537 0.00233787 0.0020669 0.00111147 0.000956698 0.000894075 0.000366185
threshold=1.0000000180025095e-35 0.10892256882567523 -0.024679665632749419 -1.0000000180025095e-35 -0.70134264863427231 -0.69641944291127988 -0.58301251730399051 -0.082283631726606341 -0.63343247787912849 -0.33005182381171583 -0.58333510380366349 -0.32573541284797125 0.23951900789374567 1.0000000180025095e-35 -0.53346590011330142 -0.18126783580438185 0.36439669523095336 -0.40975318544980477 -0.097965436452175467 -0.39953947388843908 -0.2188276932707999 -0.74625258661555838 -0.14310693271368105 -0.095458470916040053 1.5139541230593598 0.039722985132272952 -0.67397910910905323 -0.44163113521624048 -0.21069722061997651 -0.064182196904391142
decision_type=2 2 2 2 2 2 2 2 2 2 2 2 2 2 2 2 2 2 2 2 2 2 2 2 2 2 2 2 2 2
left_child=1 2 4 -4 5 6 10 8 -7 14 -1 -3 -2 15 -10 18 -13 20 21 22 -16 -6 -14 26 -18 28 -23 -28 -21 -27
right_child=12 11 3 -5 13 7 -8 -9 9 -11 -12 16 19 -15 17 -17 24 -19 -20 25 -22 23 -24 -25 -26 29 27 -29 -30 -31
leaf_value=-0.0067308017597951927 0.043580940313171265 0.033779695304396819 -0.027728171327562987 0.082610136136471141 -0.076205958320042941 -0.015637962886984141 0.047896240477931326 -0.0011791608607037512 -0.064793038971291697 -0.027076523103907953 -0.060917982412848563 0.080510438582800256 0.075906999705752265 -0.052170008792441019 -0.077952685534167718 -0.080463342658199807 0.075450202108987063 -0.081383016327746069 -0.076897803892697222 0.073916307703554368 -0.074410043630636122 -0.074231256197402964 0.074343866948948706 -0.074916225810992235 0.073954301114393994 0.073940502241182593 -0.073168263095180541 -0.073909058331935437 0.074923768687236575 0.073472732963560924
leaf_weight=4.8315085321664801 4.6460516899824134 4.6659764349460628 8.0273071825504285 6.5798081606626502 6.0643298029899517 6.1175702810287431 4.8466686606407157 5.6728804111480704 7.3023822903633144 4.6960051059722963 4.6431167721748343 4.6477243155241004 12.583565250039102 4.4456177651882163 5.7082576006650951 5.5443926602601996 6.4749412536621076 5.8098713159561148 5.419742137193686 4.3751475363969803 5.7132227271795264 4.3946490585803977 4.6209384500980368 4.6511772423982682 4.3778253197669983 5.0336190313100806 16.6574159860611 5.9027273505926123 4.4340600073337537 24.783339962363247
leaf_count=20 20 20 35 28 27 26 20 24 32 20 20 20 56 20 25 24 29 25 24 20 26 20 21 21 20 23 77 27 20 114
internal_value=0 -0.030381 -0.046286 0.021974 -0.0554824 -0.0384667 -0.00581177 -0.0498674 -0.0576814 -0.0664808 -0.0332857 0.0666503 0.0719268 -0.073223 -0.0740231 -0.0751474 0.076545 -0.0779347 -0.0744634 0.0742857 -0.0761806 -0.0741132 0.0754872 -0.0737117 0.0748468 0.0737505 -0.0735038 -0.0733621 0.0744234 0.0735517
internal_weight=0 143.195 123.029 14.6071 108.422 55.3415 14.3213 41.0202 35.3473 29.2297 9.47463 20.1665 60.4767 53.0801 24.5337 48.6344 15.5005 17.2314 43.09 55.8307 11.4215 37.6703 17.2045 31.606 10.8528 38.6262 26.9548 22.5601 8.80921 29.817
internal_count=904 630 541 63 478 238 60 178 154 128 40 89 274 240 108 220 69 76 196 254 51 172 77 145 49 177 124 104 40 137
is_linear=0
shrinkage=0.05


Tree=10
num_leaves=31
num_cat=0
split_feature=200 471 107 0 109 96 97 85 200 110 91 238 405 47 42 200 50 142 116 463 197 235 147 445 113 200 200 106 302 330
split_gain=164.855 83.9925 32.46 12.9171 10.0405 9.08044 5.55046 5.42437 6.19385 7.39996 1.75157 1.27111 2.85362 0.203847 0.179987 0.0543256 0.031266 0.0212513 0.0156113 0.0137281 0.0132088 0.012572 0.00363434 0.00327713 0.00264347 0.00124767 0.0011865 0.000829931 0.000675227 0.000824249
threshold=0.093528844928380359 0.40398434076033368 -0.092253169386423597 0.96629595236539512 0.15753663267135923 0.1935294493597656 -0.12525103700751825 -0.65129616100757781 -0.67341117603674572 -0.37541456734257034 -0.064381627612787498 -0.3537901931155461 -0.45272348485077973 2.4539756226692231 0.31646859633766106 -0.75122570214344508 -0.43867855656928573 0.2018587596442673 -0.083153193424211416 -0.30293289065891338 -0.55995642962748016 -0.65558674096948477 1.2493526489830298 -0.44599499855583319 -0.052154580322832524 0.47193052562749566 1.141025170137633 -0.147846805205221 -0.51749352259605685 -0.56928590058704376
decision_type=2 2 2 2 2 2 2 2 2 2 2 2 2 2 2 2 2 2 2 2 2 2 2 2 2 2 2 2 2 2
left_child=1 2 3 5 6 7 -4 8 9 -1 11 13 -13 15 19 16 -9 -3 21 24 -18 -17 -19 28 26 -21 -2 -27 29 -23
right_child=14 17 4 -5 -6 -7 -8 10 -10 -11 -12 12 -14 -15 -16 18 20 22 -20 25 -22 23 -24 -25 -26 27 -28 -29 -30 -31
leaf_value=-0.051503595254141755 0.074653611098438377 0.077799406491047357 -0.047170450008517217 0.010858390213226847 0.072608075026293559 0.0068740258801449784 0.029962913518972224 -0.079873571271582594 -0.074188836686748874 0.018639759988213305 -0.044619414529436532 -0.023663077519647305 -0.074267780586109958 -0.063461395238259152 0.062051419200240966 -0.074983071273605831 -0.077277900803523786 0.074682925465892822 -0.075856829519545338 0.072809266837225384 -0.073803902833432689 -0.071611725455124217 0.072987238257616924 -0.073227168293847608 0.072624029552187233 0.072353861085634588 0.073708619851561824 0.071753813980433512 -0.071508454567754801 -0.072555207975457905
leaf_weight=8.6267728507518751 5.0806467980146435 4.5542684793472317 4.6870020031929007 7.476626217365264 6.3793451488018027 5.2420125901699057 4.6424072831869116 5.0969272702932384 8.4902498424053174 6.6651557832956341 7.5471454411745063 4.4630768597126007 7.4129871577024513 4.7729026526212683 4.3439728170633307 4.8185513019561723 4.5040470808744439 6.1813603937625867 4.4202855229377809 4.5110542029142371 6.9710668176412485 4.2136565744876835 6.4646014720201492 5.617472976446158 4.2837460935115805 7.8946505635976818 9.5940600335597974 21.336743831634521 8.2001025974750501 5.1371126919984826
leaf_count=37 23 20 20 31 28 23 20 22 39 28 33 20 34 22 20 22 20 28 20 21 32 20 30 26 20 37 44 101 39 24
internal_value=0 -0.0287409 -0.0429543 -0.0525823 0.024267 -0.0572234 -0.00878812 -0.0606888 -0.039944 -0.0209308 -0.067431 -0.0700543 -0.0552503 -0.0733251 0.0718339 -0.0742863 -0.0766149 0.0748708 -0.0730955 0.0726402 -0.0751675 -0.0726593 0.0738161 -0.0721761 0.0737168 0.0720353 0.0740358 0.0719159 -0.0718396 -0.0721301
internal_weight=0 142.585 125.385 109.676 15.7088 102.2 9.32941 96.9575 23.7822 15.2919 73.1753 65.6282 11.8761 53.7521 57.0449 48.9792 16.572 17.2002 32.4072 52.7009 11.4751 27.9869 12.646 23.1683 18.9585 33.7424 14.6747 29.2314 17.5509 9.35077
internal_count=904 638 560 492 68 461 40 438 104 65 334 301 54 247 266 225 74 78 151 246 52 131 58 109 87 159 67 138 83 44
is_linear=0
shrinkage=0.05


Tree=11
num_leaves=31
num_cat=0
split_feature=200 348 107 200 93 277 0 50 110 209 99 393 83 47 159 113 49 0 308 193 136 49 103 298 107 480 476 136 111 200
split_gain=153.029 79.4707 24.3314 13.2208 15.2367 10.3969 9.29062 6.85228 5.4193 2.15636 1.80157 1.52935 1.2302 0.215749 0.106977 0.0340798 0.0283635 0.020751 0.010787 0.00773536 0.0052509 0.0032132 0.00299709 0.00238595 0.00160001 0.00121329 0.000947136 0.000868205 0.00107473 0.00080614
threshold=0.10766697825674294 0.26533713801815628 -0.075648956617784341 -0.65068315329464632 1.0000000180025095e-35 -0.46787004716380437 0.88130483048485075 -0.57910587712549655 -0.37541456734257034 -0.28754436669227385 -0.1431620137705448 0.062031839882150837 0.45195208469680975 0.23937497801067673 -0.20736572698344555 0.1404312954989215 -0.46190325800503945 0.75154978473798839 -0.36890668932611231 -0.13206135949001638 -0.51616563446720165 -0.5805196798849932 -0.20744088490770135 1.2872884547919099 -0.17940582262388208 0.039722985132272952 -0.1709862653388444 -0.37220172428706427 -0.22429079048008871 0.52111622019041415
decision_type=2 2 2 2 2 2 2 2 2 2 2 2 2 2 2 2 2 2 2 2 2 2 2 2 2 2 2 2 2 2
left_child=1 2 3 4 6 -4 7 8 -1 10 13 -3 14 16 17 -13 -9 19 24 21 -18 -5 -22 -17 -2 26 -20 -23 -29 -27
right_child=18 11 5 12 -6 -7 -8 9 -10 -11 -12 15 -14 -15 -16 23 20 -19 25 -21 22 27 -24 -25 -26 29 -28 28 -30 -31
leaf_value=-0.04568085982820163 0.072478125288189157 0.039781104919910694 0.079846468962601225 -0.071934368465796608 0.043415844912540018 -0.012312933348935575 0.016134886599475869 -0.076329302606156238 0.021360737599123009 -0.03080587921589982 -0.037303203457647705 0.076960963932744056 -0.044195982615962588 -0.061272898363328755 -0.079673230477218526 0.072613900640863607 -0.073844177133618571 -0.074563915135671288 0.070599376653671511 -0.073046540869045121 -0.071046611364457737 -0.070320815295294922 -0.072729467998224051 0.071112917336902656 0.071357434326662084 0.071073274665888697 0.07160456428178559 -0.071527051520848053 -0.070483439325172606 0.070351227757545612
leaf_weight=7.3992947489023209 11.543243780732153 4.3832155168056515 4.8310591131448737 5.050022840499877 5.6532086282968512 8.3491817861795408 5.9325124919414511 6.4921913295984277 5.0865319669246656 4.9338961690664354 4.51523433625698 4.4780408740043631 4.2697289437055579 4.2764825969934455 4.4247525334358206 4.7088879495859128 4.3428464233875284 4.7968728244304648 4.543858990073204 4.292491331696513 6.037777602672576 15.604085996747017 4.7093458622694007 6.0481765121221542 4.3984275609254828 4.583959728479388 4.8392953872680646 4.2026202529668808 5.9733513593673706 24.667881175875664
leaf_count=32 54 20 21 24 24 36 24 29 21 22 20 20 20 20 20 22 20 22 22 20 29 76 22 29 21 22 23 20 29 120
internal_value=0 -0.0275516 -0.0426667 -0.050494 -0.0346646 0.021467 -0.0428805 -0.0502059 -0.0183692 -0.0614643 -0.0664444 0.0658078 -0.0698288 -0.0715329 -0.0722968 0.0732958 -0.0735659 -0.0714792 0.0710746 -0.0710579 -0.0723769 -0.0707811 -0.071784 0.07177 0.0721689 0.0706231 0.0711178 -0.0705551 -0.0709144 0.0704644
internal_weight=0 140.792 121.173 107.993 59.3793 13.1802 53.7261 47.7936 12.4858 35.3078 30.3739 19.6183 48.6139 25.8586 44.3442 15.2351 21.5822 39.9194 54.5767 35.1226 15.09 30.8301 10.7471 10.7571 15.9417 38.635 9.38315 25.7801 10.176 29.2518
internal_count=904 642 551 494 263 57 239 215 53 162 140 91 231 120 211 71 100 191 262 169 71 149 51 51 75 187 45 125 49 142
is_linear=0
shrinkage=0.05


Tree=12
num_leaves=31
num_cat=0
split_feature=200 460 107 200 0 70 0 102 389 385 111 54 81 143 1 274 78 225 324 363 308 44 115 105 107 447 56 480 334 200
split_gain=142.134 73.6792 28.6599 10.9628 11.2324 9.03043 16.0584 8.84527 6.96761 4.94607 5.0038 2.95478 1.66716 0.598213 0.497619 0.113255 0.0840779 0.0247567 0.0202434 0.0162056 0.00870594 0.00866262 0.00715211 0.00262671 0.00128615 0.00112535 0.00102581 0.000982395 0.000673358 0.000653446
threshold=0.10766697825674294 0.35833909731927105 -0.092253169386423597 -0.67850691451380085 0.94351188396889807 -0.033656579543474736 -0.37170990953391886 0.10820454231825584 -0.42654964338755763 -0.49117595707415279 -0.34480915270515811 -0.55164911859733634 0.48991993302627163 -0.226226530796967 0.94949099055468544 -0.10226207676435965 0.66957651116957806 -0.55158833513046457 1.1669093948175158 -0.67357352897596923 -0.36890668932611231 -0.17279800742452994 -0.077372344015904509 -0.22164599087772827 -0.17940582262388208 -0.55538736248528731 -0.33706929085033616 0.039722985132272952 -0.17930132741423671 0.52111622019041415
decision_type=2 2 2 2 2 2 2 2 2 2 2 2 2 2 2 2 2 2 2 2 2 2 2 2 2 2 2 2 2 2
left_child=1 2 3 4 5 6 9 8 -4 10 11 -1 15 17 18 16 19 -7 -3 -5 24 -19 23 25 -2 26 -21 28 -22 -29
right_child=20 14 7 12 -6 13 -8 -9 -10 -11 -12 -13 -14 -15 -16 -17 -18 21 -20 22 27 -23 -24 -25 -26 -27 -28 29 -30 -31
leaf_value=-0.01580474548406453 0.070907782603447697 0.074237289752609917 0.033645176483403809 -0.072845763173029862 0.035206027842287879 -0.076188346565575951 0.043476884244197128 0.074183109180382942 -0.050169991926974813 -0.075339690413004312 0.01627405002626376 -0.068587273589820627 -0.037560046215130351 -0.052047193812861908 0.052684429613873963 -0.077830677283301911 -0.062470572266625606 -0.07315742917043512 0.070400437770698224 -0.07014829847909039 0.069184056913613221 -0.070271085325829638 -0.071570598383087367 -0.070371563125948375 0.069888110526165059 -0.068816493761572353 -0.069134334822988947 0.069628798391039998 0.070050245333786246 0.068968865658356457
leaf_weight=4.6238739490509024 11.217203408479689 6.9785750508308428 5.360090345144271 4.667326256632804 5.1761363297700873 4.8352172672748575 6.6642144322395316 5.4289814233779898 4.6140481233596793 8.3506948500871641 4.5773072093725231 6.2157203406095496 4.2947208285331717 4.2588403671979931 4.2003872245550147 4.3492767810821524 4.0126542896032324 5.807650700211525 6.7753695398569107 4.0874766558408737 4.0057726949453354 4.7058864235877991 4.3785167038440731 5.525817096233367 4.2696202695369712 11.71460907161236 6.3998512327671033 4.4485361278057125 5.1005821377038938 23.92307460308075
leaf_count=20 54 32 23 22 21 22 29 25 20 38 20 28 20 20 20 20 20 27 33 20 20 23 21 27 21 59 32 22 25 120
internal_value=0 -0.0267225 -0.0408512 -0.0502241 -0.034912 -0.0421651 -0.0251154 0.0228261 -0.00512782 -0.044348 -0.0275611 -0.0460717 -0.0673283 -0.0686269 0.0677471 -0.0701608 -0.0693429 -0.0732273 0.0723472 -0.0700928 0.0696294 -0.0718655 -0.0696926 -0.0693961 0.0706267 -0.0691533 -0.0695295 0.0692174 0.0696692 0.0690723
internal_weight=0 138.003 120.049 104.646 55.2155 50.0394 30.4318 15.4031 9.97414 23.7676 15.4169 10.8396 49.4302 19.6076 17.9543 45.1355 40.7863 15.3488 13.7539 36.7736 52.9648 10.5135 32.1063 27.7278 15.4868 22.2019 10.4873 37.478 9.10635 28.3716
internal_count=904 642 557 489 248 227 135 68 43 106 68 48 241 92 85 221 201 72 65 181 262 50 159 138 75 111 52 187 45 142
is_linear=0
shrinkage=0.05


Tree=13
num_leaves=31
num_cat=0
split_feature=200 113 102 99 200 195 255 93 355 270 129 200 351 235 425 367 234 107 178 1 385 498 85 91 103 43 341 117 499 34
split_gain=132.421 66.9238 24.1401 13.8427 11.7339 7.16171 7.34865 5.28673 4.58316 2.88216 2.39345 1.27768 0.754169 0.737617 0.0961645 0.0705504 0.0536367 0.019869 0.00796384 0.00681941 0.00603692 0.00385306 0.00251769 0.00140244 0.00139383 0.000932685 0.000756084 0.000598353 0.000220173 0.000143459
threshold=1.0000000180025095e-35 0.10892256882567523 -0.024679665632749419 -1.0000000180025095e-35 -0.70134264863427231 -0.69641944291127988 -0.7105978411986954 -0.083235945978177572 -0.63504584843900724 -0.3460373494680748 -0.19675524597829661 0.23951900789374567 1.0000000180025095e-35 -0.49922230293657605 -0.44356990692048953 -0.16275154468067127 0.12938535374663149 -0.16513445627334999 -0.72950446881115927 -0.41370801098645238 -0.39953947388843908 -0.30264881227841239 0.29840824056566878 -0.11654978090902483 -0.14310693271368105 0.40069312315598876 -0.62629352738432154 -0.26845620220013228 -0.52353595526831576 -0.22601680059491089
decision_type=2 2 2 2 2 2 2 2 2 2 2 2 2 2 2 2 2 2 2 2 2 2 2 2 2 2 2 2 2 2
left_child=1 2 4 -4 5 6 -1 8 -7 13 -3 -2 15 -10 19 17 -12 18 -6 -15 24 23 -18 26 -13 27 -20 -22 29 -28
right_child=11 10 3 -5 12 7 -8 -9 9 -11 16 20 -14 14 -16 -17 22 -19 21 -21 25 -23 -24 -25 -26 -27 28 -29 -30 -31
leaf_value=-0.041960782539507496 0.040013265368501756 0.02886725752520504 -0.024438177030629539 0.076767382347529944 -0.070343962800717016 -0.0064515684119390883 0.031133959763190906 0.0041911175764621569 -0.054262495139759129 -0.028862079687739507 0.075802836237200896 0.069345345639205122 -0.047045510859221464 -0.071932704816173157 -0.078910096704114252 -0.075034610160006052 0.069978865520378644 -0.072078993869452379 -0.068249480288459438 -0.069299606805766786 0.068313821706003627 -0.069523484448397468 0.06837311370140213 -0.068733818165628457 0.068269701879898337 0.068568669121196177 -0.067180779802637564 0.067677615583431314 -0.067788675317429423 -0.067570503020564401
leaf_weight=6.3764404207468033 4.3629702478647223 4.3701959401369121 7.506605938076973 6.1442327797412855 4.6734467148780743 4.8261343240737871 7.4630881398916227 4.8718991279602042 7.2660639137029657 6.1850388050079408 4.3714837431907645 11.257571220397947 4.0670489668846121 5.0392256975173941 5.4842492192983636 5.1771393269300452 4.6780081242322904 4.1700906455516877 5.2804548591375378 4.8023485988378516 4.3121300637722006 4.2217802256345811 5.1050270348787308 4.1548911184072486 4.1116984188556662 4.1424224078655234 3.9965211004018819 25.854688391089443 6.3816316127777073 5.7711600512266159
leaf_count=28 20 20 35 28 23 22 32 21 34 28 20 56 20 24 25 24 23 20 27 24 22 21 26 21 21 21 21 134 33 30
internal_value=0 -0.0269236 -0.0412631 0.0211144 -0.0497604 -0.0333896 -0.0025438 -0.0444849 -0.0515421 -0.0591042 0.061212 0.0659557 -0.0676421 -0.0673836 -0.0736044 -0.0695534 0.0711984 -0.0688192 -0.0684249 -0.0706478 0.0682341 -0.068124 0.0691409 -0.0678931 0.0690576 0.0678652 -0.0677301 0.0677686 -0.0675603 -0.067411
internal_weight=0 132.384 113.859 13.6508 100.209 52.3145 13.8395 38.475 33.6031 28.7769 18.5247 54.0415 47.8942 22.5919 15.3258 43.8271 14.1545 38.65 34.4799 9.84157 49.6785 29.8064 9.78304 25.5847 15.3693 34.3092 21.4298 30.1668 16.1493 9.76768
internal_count=904 630 541 63 478 238 60 178 157 135 89 274 240 107 73 220 69 196 176 48 254 153 49 132 77 177 111 156 84 51
is_linear=0
shrinkage=0.05


Tree=14
num_leaves=31
num_cat=0
split_feature=200 472 107 0 200 99 103 52 47 195 124 211 235 92 225 495 214 200 96 0 308 111 126 164 108 200 89 480 447 469
split_gain=123.206 64.8123 20.5817 13.5478 8.11869 7.70228 7.29342 5.75499 4.06362 2.30531 2.29109 1.74775 1.20257 0.633705 0.0539734 0.0414129 0.0300147 0.0125961 0.0135037 0.00815258 0.00599582 0.00490336 0.00230263 0.00120999 0.000870151 0.000814322 0.000810475 0.000675491 0.000523362 0.000684921
threshold=0.10766697825674294 0.24878595123141653 -0.069039331913837224 1.2072894368331915 -0.7543402583353046 -0.15608191812469593 -0.16270031786665509 -0.51724033195587815 -0.26670246912710616 0.081304864663198764 0.028148609781143887 -0.67386068975818814 0.01571908287883866 -0.090304793362866731 -0.53857473665623845 -0.16891396967188463 0.30550100399172836 -0.66644364849467952 -0.2400073402548018 0.75154978473798839 -0.36890668932611231 -0.11311100587790886 1.0007535604365392 -0.71886202177644443 -0.24024953252302378 0.40188533147781796 -0.44112865667398088 -1.0000000180025095e-35 -0.54444234842943517 -0.55499717217058431
decision_type=2 2 2 2 2 2 2 2 2 2 2 2 2 2 2 2 2 2 2 2 2 2 2 2 2 2 2 2 2 2
left_child=1 2 3 4 5 7 -4 8 -1 -3 12 -9 13 15 -13 17 -11 18 -6 21 24 23 -18 -19 26 -22 -2 -27 29 -25
right_child=20 9 6 -5 10 -7 -8 11 -10 16 -12 14 -14 -15 -16 -17 22 19 -20 -21 25 -23 -24 28 -26 27 -28 -29 -30 -31
leaf_value=0.0043352926462191495 0.067826805992494618 0.027396407560286658 -0.018963986072570545 0.038459953194849301 -0.071446778722467921 0.025593434673289107 0.057668692934004798 -0.035038185586359565 -0.054407312342677254 0.072909698308480417 -0.028883565291382331 -0.076505498274284059 -0.039933620020759036 -0.050774938377386558 -0.069371868707969672 -0.073026447294781277 0.06904347200364265 -0.067579735838655369 -0.067835383334218707 -0.069396978807777412 0.067456364878176994 -0.068670768833988538 0.06749025033108276 -0.066538750645073474 0.067545750973585617 0.067094600886035416 0.068831083376120802 0.066552559152803323 -0.066367682778068524 -0.067378153264520527
leaf_weight=8.3313697725534421 4.0671908706426612 4.098351418972018 5.9256282895803452 4.4390831738710395 4.3589422404766083 5.097578600049018 6.5224622040986997 4.4333249330520621 4.5529350638389596 5.0403327643871298 4.9742465764284125 4.3474774062633497 4.6783936470746985 5.8049253076314988 6.7971492856740969 4.181072622537612 4.1795169115066511 3.842946812510486 6.3729125410318286 4.1548117250204077 3.8286315500736228 3.9108225405216315 5.5610079914331436 6.1593401283025742 6.528089925646781 7.5852220356464377 3.9698452800512305 23.726238235831264 10.581596523523332 4.0138756334781629
leaf_count=36 21 20 26 19 21 22 30 20 21 24 24 20 22 28 34 20 21 20 33 21 20 20 29 33 34 40 20 127 57 21
internal_value=0 -0.0252034 -0.0394743 -0.0469485 -0.0508736 -0.0310074 0.0211895 -0.0411445 -0.0164226 0.0605773 -0.0614506 -0.0615917 -0.0642407 -0.066371 -0.0721547 -0.068274 0.0697775 -0.0678161 -0.0693022 -0.0673278 0.0671216 -0.0670262 0.0681567 -0.0667648 0.0679746 0.066768 0.0683229 0.0666839 -0.0666139 -0.0668699
internal_weight=0 132.36 113.481 101.033 96.5937 33.5598 12.4481 28.4623 12.8843 18.8792 63.0339 15.578 58.0596 53.3812 11.1446 47.5763 14.7809 43.3952 10.7319 32.6634 49.7052 28.5086 9.74052 24.5978 14.5651 35.1401 8.03704 31.3115 20.7548 10.1732
internal_count=904 642 548 492 473 153 56 131 57 94 320 74 296 274 54 246 74 226 54 172 262 151 50 131 75 187 41 167 111 54
is_linear=0
shrinkage=0.05


Tree=15
num_leaves=31
num_cat=0
split_feature=200 460 107 200 432 91 378 109 53 52 104 132 81 1 404 274 300 50 113 0 178 308 324 115 137 51 107 200 90 480
split_gain=114.814 60.6597 23.131 10.0879 9.81301 10.7915 8.13439 7.76093 5.91913 5.741 2.69324 2.36345 1.64474 0.484478 0.309616 0.104611 0.0935505 0.0796714 0.024505 0.0143436 0.00624615 0.00489788 0.00428251 0.00369899 0.0027846 0.000745805 0.000715596 0.000667601 0.000611825 0.000554033
threshold=0.10766697825674294 0.35833909731927105 -0.092253169386423597 -0.67850691451380085 -0.48130059817433757 -0.057022656308760335 -0.44527694874986995 0.12737913043154411 0.14798105151037805 -0.54016833312469026 -0.21912498507373376 -0.15462333087494076 0.48991993302627163 0.94949099055468544 -0.56840537152604875 -0.10226207676435965 -0.3505841172653647 2.2781600860043749 0.056053091799458249 0.75154978473798839 -0.30843781416548205 -0.36890668932611231 1.4508920244426824 -0.077372344015904509 -0.79504549185834927 0.22628599256234644 -0.17940582262388208 0.40188533147781796 -0.10117041521770137 -1.0000000180025095e-35
decision_type=2 2 2 2 2 2 2 2 2 2 2 2 2 2 2 2 2 2 2 2 2 2 2 2 2 2 2 2 2 2
left_child=1 2 3 4 5 6 9 8 -4 -1 14 16 15 18 -11 17 20 19 -3 23 -6 26 -20 24 -5 28 -2 -23 -26 -29
right_child=21 13 7 12 11 -7 -8 -9 -10 10 -12 -13 -14 -15 -16 -17 -18 -19 22 -21 -22 27 -24 -25 25 -27 -28 29 -30 -31
leaf_value=-0.0054623659529986898 0.067013717148689714 0.072274775373635289 0.031955727533828165 -0.067234779236610601 -0.070306211024034101 0.052370651242726045 0.033713195886719304 0.067447236203783345 -0.048329930560368023 -0.073689783202601333 -0.02163140177960253 -0.032177107147372 -0.033382862713389028 0.049029378028563289 -0.056516311430637151 -0.074287022134595523 -0.077888908831330428 -0.058840146620038461 0.068721666012238877 -0.069242418529021049 -0.067618380213301826 0.066319194333048559 0.066491387917058081 -0.067624560998000668 -0.065464500498937636 -0.066388730067446541 0.066215878832563177 0.065986214816270747 -0.066177460131994201 0.065486928995832416
leaf_weight=8.5413132309913653 10.216331556439398 4.1902391165494945 4.6790089160203916 3.7866393774747875 4.6865666806697845 4.9721326828002956 4.6080273985862723 5.5508473068475714 4.5071466118097305 8.1451123058795947 4.1969752460718146 5.1363643258810034 4.0725085437297812 3.9100339114665976 3.8722017109394065 4.0812511891126624 4.5906827747821817 3.6510945260524741 4.3284167200326902 4.505700707435607 4.0116709768772125 3.702758088707923 4.2813840359449387 3.9898101687431362 13.520729884505277 3.8935912102460852 3.8770107179880133 7.3333857804536811 3.8705076575279227 22.926967069506649
leaf_count=38 54 20 22 20 23 21 20 26 20 39 20 25 20 20 20 20 21 20 22 23 21 20 23 21 75 21 21 40 21 127
internal_value=0 -0.0244767 -0.0376396 -0.0464111 -0.031545 -0.0157489 -0.0272836 0.0207695 -0.00743608 -0.0386376 -0.0561135 -0.0609811 -0.0636984 0.0644334 -0.0681562 -0.0666878 -0.0721143 -0.0658545 0.0691388 -0.0666175 -0.0690666 0.0660106 0.0676126 -0.0662105 -0.0659855 -0.0657632 0.0667942 0.0656855 -0.0656232 0.0656079
internal_weight=0 129.58 112.87 98.1329 52.761 34.3358 29.3636 14.737 9.18616 24.7556 16.2143 18.4253 45.3718 16.7101 12.0173 41.2993 13.2889 37.2181 12.8 33.567 8.69824 48.0565 8.6098 29.0613 25.0715 21.2848 14.0933 33.9631 17.3912 30.2604
internal_count=904 642 557 489 248 158 137 68 42 117 79 90 241 85 59 221 65 201 65 181 44 262 45 158 137 117 75 187 96 167
is_linear=0
shrinkage=0.05


Tree=16
num_leaves=31
num_cat=0
split_feature=200 434 200 103 108 50 0 0 111 81 365 220 170 117 103 349 200 483 97 113 266 114 118 463 77 213 373 45 97 333
split_gain=107.374 55.1938 20.9794 19.4354 8.53766 6.98154 8.91134 8.05371 4.47886 2.15744 1.35008 1.10397 1.00558 0.479935 0.188507 0.119324 0.0721081 0.0535174 0.0284885 0.0204842 0.00509529 0.00459334 0.00223994 0.00221838 0.00158123 0.00136804 0.000501649 0.00045462 0.000390443 0.000319061
threshold=1.0000000180025095e-35 0.3745645491449045 -0.63375670304304765 -0.15238719240870299 -0.11953497808806508 -0.46840794881128461 -0.47806655059016989 0.88130483048485075 -0.33395375934637256 -1.1558114343600356 -0.33267328378782424 -0.59181064578213161 0.037789333048178865 -0.04611927664995074 -0.18470737226509112 -0.078652749250375756 0.30463990104038235 -0.46600981089918275 -0.14183718334440956 0.13407373755105259 -0.55976973682029352 -0.1463046595230417 0.58397772582785556 -0.43619082589889607 0.070333250184103843 -0.70111269742972415 -0.40859964471866134 0.10188891576518137 -0.1405539728384004 -0.26371784109605484
decision_type=2 2 2 2 2 2 2 2 2 2 2 2 2 2 2 2 2 2 2 2 2 2 2 2 2 2 2 2 2 2
left_child=1 2 3 5 -5 6 8 10 9 -1 14 -2 15 -3 17 18 -13 20 21 -15 -7 25 -21 28 -22 -4 27 -27 -18 -25
right_child=11 13 12 4 -6 7 -8 -9 -10 -11 -12 16 -14 19 -16 -17 23 -19 -20 22 24 -23 -24 29 -26 26 -28 -29 -30 -31
leaf_value=-0.022407692017986522 0.042906595702976905 0.047185274796337481 -0.065753650731200444 -0.0073311371978994526 0.073144801001358506 -0.068404771978563872 0.040355955869590177 0.0091931504230193632 0.0059586536912379206 -0.06717100893112192 -0.034641345194930333 0.071788975443311906 -0.039547515053461178 0.070635256837982149 -0.056508507467893758 -0.07492624823262603 0.06576838343738621 -0.073645820004394888 -0.068926876580350696 0.067144725448774409 -0.066995938021312318 -0.066573253556103593 0.065461615960272238 0.065018425161489368 -0.065547692572843957 -0.064485441590142176 -0.065264287219380476 -0.065118939315119917 0.065095271070174307 0.064542388145609461
leaf_weight=4.4942757934331929 6.1979279965162268 3.7211930006742486 3.8162189722061184 6.3154771775007248 6.8924967944622022 4.6756081879139 5.9071017503738359 4.8765728026628485 5.4748942703008661 6.7113523334264755 3.9935262501239874 4.0999369472265235 3.7282868772745124 4.051338985562321 3.8649379163980475 3.9740141481161109 5.4626316279172897 4.2060749828815451 6.0255160778760937 3.779906764626503 3.948424905538559 4.7918827533721915 4.1438033133745193 4.0797566026449195 3.6060501933097839 13.920183733105668 3.5761950910091356 3.555366873741149 3.5573491156101209 25.650771573185924
leaf_count=20 33 20 21 30 33 24 26 20 25 31 20 21 20 20 20 19 30 20 31 20 21 26 23 23 20 80 20 20 20 147
internal_value=0 -0.0247582 -0.037452 -0.0194724 0.0346647 -0.0332872 -0.0124185 -0.0494461 -0.0311076 -0.0492176 -0.0612166 0.0626304 -0.0643739 0.0628694 -0.0664443 -0.0667078 0.0654833 -0.0687807 -0.0657925 0.0677432 -0.0671075 -0.0651558 0.0662645 0.0648161 -0.0663046 -0.0648826 -0.0647247 -0.0646143 0.0655029 0.0646077
internal_weight=0 124.051 108.354 64.9668 13.208 51.7588 22.5876 29.1712 16.6805 11.2056 24.2946 49.0484 43.3877 15.6962 20.3011 39.6594 42.8504 16.4362 35.6854 11.975 12.2301 29.6598 7.92371 38.7505 7.55448 24.868 21.0517 17.4756 9.01998 29.7305
internal_count=904 630 547 310 63 247 102 145 76 51 125 274 237 83 105 217 241 85 198 63 65 167 43 220 41 141 120 100 50 170
is_linear=0
shrinkage=0.05


Tree=17
num_leaves=31
num_cat=0
split_feature=200 460 107 200 432 99 438 103 50 394 132 81 495 1 73 300 274 118 480 0 63 112 308 195 336 493 19 200 480 49
split_gain=100.302 52.8462 20.1552 9.57239 9.16242 11.102 8.81343 7.0351 4.10909 3.32797 2.2969 1.58886 0.604666 0.461747 0.0969073 0.0786887 0.0763112 0.0549458 0.0176976 0.0126177 0.00524864 0.00413678 0.00410608 0.00242762 0.000722487 0.000475687 0.000466858 0.000424102 0.00040471 0.000327871
threshold=0.10766697825674294 0.35833909731927105 -0.092253169386423597 -0.67850691451380085 -0.48130059817433757 -0.14440783954346254 -0.49578638071663556 -0.16270031786665509 -0.62760852291498825 -0.5469897264873379 -0.15462333087494076 0.48991993302627163 -0.65706863438252605 0.94949099055468544 0.83678365778867791 -0.3505841172653647 -0.10226207676435965 -0.34892408410911069 0.72625416203432513 0.75154978473798839 -0.26364327204088472 -0.10730835909424673 -0.36890668932611231 -0.70872557190238805 -0.62273469592317876 -0.37057767038936251 0.29583025168940713 0.40188533147781796 0.039722985132272952 1.0000000180025095e-35
decision_type=2 2 2 2 2 2 2 2 2 2 2 2 2 2 2 2 2 2 2 2 2 2 2 2 2 2 2 2 2 2
left_child=1 2 3 4 5 6 8 -4 -1 12 15 14 -10 18 16 20 19 -14 -3 21 -6 23 24 -5 -2 29 -26 -24 -29 -25
right_child=22 13 7 11 10 -7 -8 -9 9 -11 -12 -13 17 -15 -16 -17 -18 -19 -20 -21 -22 -23 27 25 26 -27 -28 28 -30 -31
leaf_value=0.0028678147424610486 0.065367675539824421 0.06913641773011861 -0.018367748539901845 -0.065176290213296406 -0.068423597896231175 0.051230503857758826 0.036037581126065386 0.052178985834291348 -0.048065434002379656 -0.019000290292095798 -0.029947743814772582 -0.031341369892573932 -0.075625445967491753 0.046838013505101972 -0.056674817476772554 -0.075358187534075083 -0.072100241505614365 -0.067703431990987981 0.065276990845548458 -0.067262778928673189 -0.065899110140547543 -0.065854143114243119 0.064292874335247982 -0.063832904852802755 0.064860860260757755 -0.064314164867635581 0.064127802181571644 0.064040389895836297 0.06359838459190445 -0.063329070537545759
leaf_weight=4.6283299773931494 4.1298288255929938 5.2852389365434629 6.5399121791124344 3.8968441933393541 3.9026321619749069 5.4368033111095455 4.6498175859451285 7.6884651482105237 4.0086973309516933 5.9959429204463985 4.9971495419740668 3.9327687621116629 4.2096760571002969 3.7294417470693579 3.4289800971746436 4.418704792857171 3.8741563111543682 4.5594090968370411 6.7817904651165009 4.0601550191640845 4.3581929504871368 3.6020087599754325 3.4509536474943188 11.523757889866838 5.4723647832870466 3.7976458072662309 3.6012495309114456 6.8378952443599728 21.344233676791191 4.4859898984432212
leaf_count=20 23 27 30 22 20 24 20 38 20 30 25 20 20 20 20 21 20 24 38 22 24 20 20 68 31 22 21 40 127 27
internal_value=0 -0.0232038 -0.035698 -0.0441121 -0.0295347 -0.0141624 -0.0268363 0.019753 -0.0393289 -0.0497318 -0.0586576 -0.0616197 -0.0641524 0.062215 -0.064699 -0.0699725 -0.0654798 -0.0715065 0.0669674 -0.0646621 -0.0670917 -0.0642754 0.0640788 -0.0640355 0.0648194 -0.0638111 0.0645699 0.0637697 0.0637056 -0.0636917
internal_weight=0 123.793 107.996 93.7677 51.1654 33.4887 28.0519 14.2284 23.4021 18.7737 17.6767 42.6023 12.7778 15.7965 38.6695 12.6795 35.2406 8.76909 12.067 31.3664 8.26083 27.3062 44.8365 23.7042 13.2034 19.8074 9.07361 31.6331 28.1821 16.0097
internal_count=904 642 557 489 248 158 134 68 114 94 90 241 64 85 221 65 201 44 65 181 44 159 262 139 75 117 52 187 167 95
is_linear=0
shrinkage=0.05


Tree=18
num_leaves=31
num_cat=0
split_feature=200 348 200 103 108 50 0 0 111 77 83 226 98 461 159 209 166 108 0 308 454 379 116 154 108 210 200 333 406 447
split_gain=93.7433 49.9345 18.505 17.3313 7.21132 7.16195 9.48855 7.6971 3.69861 2.68993 1.73288 1.23146 0.950407 0.323761 0.187365 0.0445931 0.0220303 0.0182059 0.0127326 0.00338542 0.00288703 0.00205768 0.00188681 0.00177084 0.000648112 0.000566954 0.000350736 0.000265153 0.000253803 0.000240613
threshold=0.10766697825674294 0.26533713801815628 -0.63375670304304765 -0.15238719240870299 -0.11953497808806508 -0.46840794881128461 0.88130483048485075 -0.47806655059016989 -0.33395375934637256 -1.5076448499453858 0.47369311835555494 0.15580047740016775 -0.12824655033559543 -0.67564311097723351 -0.20736572698344555 -0.31170624704269084 0.42462208293679521 -0.11953497808806508 0.74546865425862852 -0.36890668932611231 -0.48872372964099037 1.4593194742191382 -0.13667809106724377 -0.55129521049086727 -0.24024953252302378 -0.3514360188715076 0.40188533147781796 -0.26371784109605484 -0.5841284684385446 -0.54444234842943517
decision_type=2 2 2 2 2 2 2 2 2 2 2 2 2 2 2 2 2 2 2 2 2 2 2 2 2 2 2 2 2 2
left_child=1 2 3 5 -5 7 12 8 9 -1 13 -3 15 -4 17 20 -13 18 22 24 23 -18 25 -7 28 29 -21 -28 -2 -15
right_child=19 11 10 4 -6 6 -8 -9 -10 -11 -12 16 -14 14 -16 -17 21 -19 -20 26 -22 -23 -24 -25 -26 -27 27 -29 -30 -31
leaf_value=-0.014036918520753703 0.064513728167775938 0.033158657467561199 -0.050059915832198133 -0.0056902525199929825 0.070692571811241264 -0.065673924482166329 0.013561649020997643 0.039070679491680096 0.0061841330432084538 -0.064361805899612309 -0.028241718359919551 0.068864388295658649 -0.039515214774046882 -0.063029943740097946 -0.074561367445483834 -0.071170598801643351 0.065351759322010566 -0.067281924441076293 -0.066375808067135611 0.063403830466610064 -0.06627663668091209 0.063770202856630667 -0.064248923134045385 -0.064265089267450545 0.063492410103083249 -0.063558252103093835 0.063212529557960709 0.062790730661026056 0.063913962285658363 -0.062634633891500008
leaf_weight=4.4313582926988637 3.4822626411914825 3.6838820576667812 3.7091600000858298 5.8208709955215454 6.5865111798048002 3.6062657535076177 5.0935113281011573 5.8722171187400809 5.4344666898250589 6.6251647919416428 3.6939140558242789 4.3830660432577124 3.9046009778976467 8.0219796746969276 4.9949445724487331 4.1951941698789588 3.7444308251142484 3.8891720920801154 3.5861007869243613 3.3275040090084103 5.1211047917604455 4.5624960660934448 3.3965315818786612 5.8466376513242722 5.6807855814695341 3.3459318727254894 4.4574106633663204 22.701717928051949 3.5745180994272232 7.4003659486770621
leaf_count=20 20 20 22 28 33 20 21 26 25 32 20 23 20 49 25 21 21 21 20 20 28 27 20 34 34 20 27 140 21 46
internal_value=0 -0.0225826 -0.035295 -0.0180506 0.0348579 -0.0311455 -0.0481059 -0.0100867 -0.027591 -0.044192 -0.0609486 0.0586084 -0.0619591 -0.0640994 -0.065603 -0.0666281 0.0659964 -0.0640933 -0.0636117 0.0632053 -0.0653205 0.0644831 -0.0631645 -0.0648026 0.0638899 -0.0629683 0.0629193 0.06286 0.0642099 -0.0628403
internal_weight=0 120.95 104.576 62.5379 12.4074 50.1305 27.7673 22.3632 16.491 11.0565 42.0381 16.3739 22.6738 38.3442 34.635 18.7692 12.69 29.6401 25.7509 43.2242 14.574 8.30693 22.1648 9.4529 12.7376 18.7683 30.4866 27.1591 7.05678 15.4223
internal_count=904 642 551 308 61 247 144 103 77 52 243 91 123 223 201 103 71 176 155 262 82 48 135 54 75 115 187 167 41 95
is_linear=0
shrinkage=0.05


Tree=19
num_leaves=31
num_cat=0
split_feature=200 113 102 99 200 195 352 95 258 127 277 220 94 260 397 200 263 468 66 117 331 176 247 333 427 110 45 177 426 121
split_gain=87.8896 45.7769 16.7102 10.6164 9.65145 6.59562 6.31419 4.10546 4.50227 1.95216 1.73407 1.05557 0.677608 0.316665 0.0901194 0.0758898 0.0578635 0.0536159 0.0220259 0.0125576 0.00506771 0.0031235 0.00159313 0.00121218 0.000570987 0.000421864 0.000272035 0.000231258 0.00018138 0.000180862
threshold=1.0000000180025095e-35 0.10892256882567523 -0.047494292858475735 -1.0000000180025095e-35 -0.70134264863427231 -0.69641944291127988 -0.69642077122178592 -0.11998710457327355 -0.33000330846813858 -0.21740513314580182 -0.38774377250508368 -0.59181064578213161 -0.045264506125856994 -0.51732619376283562 -0.46624612149474332 0.30463990104038235 -0.13427546688698183 -0.06520868821357502 1.2232531668631186 -0.24804162216176964 -0.16305923073684828 -0.69339661543612807 1.8149366820745139 -0.26371784109605484 -0.38350426181200398 -0.12955814112672109 0.10188891576518137 -0.44741012513625833 -0.46910969772610339 -0.10222366891960807
decision_type=2 2 2 2 2 2 2 2 2 2 2 2 2 2 2 2 2 2 2 2 2 2 2 2 2 2 2 2 2 2
left_child=1 2 4 -4 5 6 -1 8 10 -3 13 -2 16 -7 19 -13 18 -11 20 -15 21 -6 -19 25 26 27 28 -17 -23 -25
right_child=11 9 3 -5 12 7 -8 -9 -10 17 -12 15 -14 14 -16 23 -18 22 -20 -21 -22 24 -24 29 -26 -27 -28 -29 -30 -31
leaf_value=-0.035916089005965927 0.039934430743941075 0.025562086408273205 -0.022548731022272912 0.067502198410087894 -0.063763637962046746 -0.056300118709879422 0.033718714982350351 -0.0030152674685531705 -0.0067663917461411446 0.070701813048182363 -0.02800753941368523 0.069706001858789057 -0.040555221900626347 -0.068396012298762299 -0.07582274511821166 0.062621514639228076 -0.069839280461526473 0.064139535139799517 -0.06642039173836542 -0.06421669022562268 -0.064359205984249643 -0.061831872185107106 0.06270211384974736 0.062292736670788197 -0.062759264032345705 0.062214173820071973 -0.062440569761353648 0.063190103268575284 -0.062242665845730717 0.061964060026089944
leaf_weight=6.0030631422996521 5.7156566828489295 4.0064109861850747 7.5275452882051468 5.7908138334751111 3.5057638734579077 7.2050972133874938 7.1123830974102003 6.1595637053251293 5.3082981705665579 3.9113612771034232 3.9645112305879584 3.7641285806894293 3.4195224493742051 3.8086499720811879 3.9454800635576213 3.6957724094390869 3.6230313777923575 4.7878032773733104 4.5019268393516532 3.4035418778657913 3.7545594722032538 10.362084165215494 3.2267466187477112 5.3802907168865195 3.2303128391504314 3.3115657567977888 3.3409225791692725 3.4648830592632294 3.6278657615184775 18.84845764935017
leaf_count=28 33 21 39 30 21 39 32 30 26 20 20 21 20 20 19 23 19 28 25 20 22 67 20 34 20 21 21 21 23 121
internal_value=0 -0.0229333 -0.0355218 0.0166054 -0.0435685 -0.028249 0.00184621 -0.0399286 -0.048156 0.0557586 -0.0579964 0.0599836 -0.0618241 -0.064471 -0.0697473 0.0629628 -0.0638473 0.0659029 -0.0631757 -0.0664237 -0.0626507 -0.0623842 0.0635608 0.0622313 -0.062149 0.0626808 -0.0620352 0.0628966 -0.0619384 0.062037
internal_weight=0 115.527 99.5949 13.3184 86.2766 46.9106 13.1154 33.7951 27.6356 15.9323 22.3273 44.1808 39.366 18.3628 11.1577 38.4651 35.9465 11.9259 32.3234 7.21219 27.8215 24.0669 8.01455 34.701 20.5612 10.4722 17.3309 7.16066 13.9899 24.2287
internal_count=904 630 541 69 472 234 60 174 144 89 118 274 238 98 59 241 218 68 199 40 174 152 48 220 131 65 111 44 90 155
is_linear=0
shrinkage=0.05


Tree=20
num_leaves=31
num_cat=0
split_feature=387 104 96 0 50 0 101 301 93 215 107 107 140 54 281 50 384 439 391 77 177 109 92 484 254 21 438 136 458 151
split_gain=63.7394 21.1831 11.8 7.4657 7.28004 6.47032 6.45989 5.93272 4.47122 4.43199 3.49099 3.36221 2.94425 2.17099 2.34029 1.06383 0.960867 0.855189 1.1081 0.619226 0.463003 1.05974 1.03835 0.22236 0.0973491 0.0578305 0.0173997 0.0151341 0.0146904 0.00652944
threshold=0.22298118489622001 -0.040399613184369541 0.18816379865755703 0.96629595236539512 -0.47577347447390111 -0.41734009004094624 -0.18843437812515165 -0.64850040583978841 -0.0623771345668881 -0.38505922060150277 -0.50323601169222876 -0.25300355977173911 0.016754404963057735 2.2553967323717656 -0.69865216685432507 -0.52772604327831829 -0.19934354907545918 -0.41402667277991895 -0.42441488771327063 0.14001142938819675 -0.53114174146842863 -0.24128571902215476 -0.24480046281594139 -0.48471956055708604 -0.21217493263581316 0.56526005012182534 -0.65617205832178882 -0.42071568725516795 -0.55429883165125615 -0.37381154074109751
decision_type=2 2 2 2 2 2 2 2 2 2 2 2 2 2 2 2 2 2 2 2 2 2 2 2 2 2 2 2 2 2
left_child=1 2 3 4 5 7 -3 10 -4 -7 -1 15 13 14 -6 23 -2 18 20 -8 26 22 -22 28 29 -23 -16 -18 -9 -19
right_child=16 6 8 -5 12 9 19 11 -10 -11 -12 -13 -14 -15 17 -17 27 24 -20 -21 21 25 -24 -25 -26 -27 -28 -29 -30 -31
leaf_value=-0.026133246567799813 0.034676004587732533 -0.012229335776227515 -0.0056271164334599569 0.017256411684332697 -0.016006692469684503 0.056335571894270998 0.067159891871053978 -0.069668880263017804 0.071035478495133572 -0.017936072737468285 0.038725214929900824 -0.0061391359355334376 -0.0071832709896160673 -0.011000995650009785 -0.067124276174887851 -0.030912989466354242 0.065702740287651981 -0.062385629945885902 -0.03102809349401503 0.043737025244503125 -0.055899674366705003 -0.064280714649593854 -0.016070964947636646 -0.052244559055771772 -0.073874185468143339 -0.055890942284987366 -0.062739498085552056 0.062255771243329906 -0.065278193325221487 -0.065458230583154794
leaf_weight=4.0464365482330322 3.4041329324245444 4.8664351403713253 3.6294955611228943 7.6808350533246985 4.0937287807464591 4.4381996393203735 6.2519669383764249 4.0543687790632248 3.9959137588739386 3.6691451221704465 4.257743760943411 4.5685317516326931 4.5498574674129477 3.4566832333803168 3.6027448922395706 3.40588003396988 3.600534379482272 3.1577007472515106 5.5058894008398047 5.1427560895681381 3.1372980773448944 6.0742617994546908 3.4205666482448533 3.4045455902814865 3.9708898067474419 3.1033735275268555 6.0817693471908552 27.549045622348785 3.5936305969953537 3.8215852826833725
leaf_count=22 21 27 21 37 24 22 36 21 21 20 21 25 25 19 20 21 21 20 34 31 20 36 22 20 20 20 38 176 21 22
internal_value=0 -0.0171005 -0.0253449 -0.0300485 -0.034112 -0.0165046 0.0359936 -0.0281406 0.0345461 0.0227224 0.00712117 -0.0435304 -0.0456723 -0.0492153 -0.0520888 -0.0553452 0.0598979 -0.0556161 -0.0513644 0.0565885 -0.0557692 -0.0504753 -0.0351251 -0.062874 -0.0676241 -0.0614438 -0.0643707 0.0626542 -0.0676058 -0.0640681
internal_weight=0 120.982 104.721 97.0957 89.4148 35.4385 16.2612 27.3311 7.62541 8.10734 8.30418 19.027 53.9763 49.4265 45.9698 14.4584 34.5537 41.8761 30.9259 11.3947 25.42 15.7355 6.55786 11.0525 10.9502 9.17764 9.68451 31.1496 7.648 6.97929
internal_count=904 686 592 550 513 193 94 151 42 42 43 108 320 295 276 83 218 252 190 67 156 98 42 62 62 56 58 197 42 42
is_linear=0
shrinkage=0.05


end of trees

feature_importances:
Column_200=61
Column_0=33
Column_107=19
Column_50=17
Column_113=17
Column_103=12
Column_480=10
Column_91=8
Column_108=8
Column_111=8
Column_49=7
Column_348=7
Column_460=7
Column_44=6
Column_81=6
Column_99=6
Column_102=6
Column_110=6
Column_308=6
Column_463=6
Column_92=5
Column_93=5
Column_195=5
Column_274=5
Column_447=5
Column_1=4
Column_42=4
Column_47=4
Column_48=4
Column_96=4
Column_98=4
Column_100=4
Column_106=4
Column_115=4
Column_235=4
Column_277=4
Column_385=4
Column_45=3
Column_52=3
Column_77=3
Column_85=3
Column_94=3
Column_97=3
Column_101=3
Column_109=3
Column_117=3
Column_120=3
Column_129=3
Column_132=3
Column_136=3
Column_140=3
Column_143=3
Column_225=3
Column_333=3
Column_351=3
Column_431=3
Column_454=3
Column_476=3
Column_43=2
Column_54=2
Column_83=2
Column_88=2
Column_90=2
Column_104=2
Column_112=2
Column_116=2
Column_118=2
Column_121=2
Column_124=2
Column_127=2
Column_151=2
Column_153=2
Column_159=2
Column_166=2
Column_177=2
Column_178=2
Column_209=2
Column_210=2
Column_214=2
Column_215=2
Column_220=2
Column_229=2
Column_266=2
Column_280=2
Column_299=2
Column_300=2
Column_301=2
Column_324=2
Column_340=2
Column_352=2
Column_363=2
Column_426=2
Column_432=2
Column_438=2
Column_439=2
Column_468=2
Column_472=2
Column_492=2
Column_495=2
Column_5=1
Column_6=1
Column_19=1
Column_21=1
Column_23=1
Column_27=1
Column_28=1
Column_29=1
Column_34=1
Column_36=1
Column_51=1
Column_53=1
Column_56=1
Column_59=1
Column_63=1
Column_66=1
Column_70=1
Column_73=1
Column_75=1
Column_78=1
Column_84=1
Column_89=1
Column_95=1
Column_105=1
Column_114=1
Column_119=1
Column_126=1
Column_137=1
Column_142=1
Column_146=1
Column_147=1
Column_154=1
Column_156=1
Column_164=1
Column_169=1
Column_170=1
Column_171=1
Column_176=1
Column_187=1
Column_193=1
Column_196=1
Column_197=1
Column_203=1
Column_211=1
Column_213=1
Column_221=1
Column_222=1
Column_226=1
Column_232=1
Column_234=1
Column_238=1
Column_247=1
Column_248=1
Column_249=1
Column_250=1
Column_253=1
Column_254=1
Column_255=1
Column_257=1
Column_258=1
Column_260=1
Column_263=1
Column_270=1
Column_272=1
Column_281=1
Column_286=1
Column_287=1
Column_288=1
Column_291=1
Column_292=1
Column_298=1
Column_302=1
Column_304=1
Column_312=1
Column_318=1
Column_319=1
Column_320=1
Column_322=1
Column_323=1
Column_327=1
Column_330=1
Column_331=1
Column_332=1
Column_334=1
Column_336=1
Column_337=1
Column_339=1
Column_341=1
Column_349=1
Column_355=1
Column_357=1
Column_362=1
Column_365=1
Column_367=1
Column_373=1
Column_375=1
Column_378=1
Column_379=1
Column_382=1
Column_384=1
Column_387=1
Column_389=1
Column_391=1
Column_393=1
Column_394=1
Column_397=1
Column_400=1
Column_402=1
Column_404=1
Column_405=1
